{"learner":{"attributes":{"best_iteration":"172","best_score":"0.7789348526133267"},"feature_names":["EXT_SOURCE_MEAN","POS_DPD_DEF_MEAN","CC_MOST_RECENT_BALANCE_MONTH","CC_PAY_TO_MIN_MEAN","NAME_EDUCATION_TYPE","DAYS_EMPLOYED","CODE_GENDER","OWN_CAR_AGE_MISSING","CC_ANY_ACTIVE","CC_UTIL_MEAN","REGION_RATING_CLIENT","LTV_CREDIT_TO_GOODS","HAS_POS_HISTORY","PREV_DAYS_DECISION_MIN","BUREAU_DEBT_TO_CREDIT_SUM","EMPLOYED_YEARS","AGE_YEARS","AMT_GOODS_PRICE","DAYS_ID_PUBLISH","BUREAU_DEBT_SUM","POS_UNIQUE_CONTRACTS","PREV_DAYS_DECISION_MEAN","CREDIT_TO_INCOME","AMT_ANNUITY","NAME_INCOME_TYPE","PREV_AMT_CREDIT_MEAN","PREV_AMT_ANNUITY_FILLED_MEAN","DTI_ANNUITY_TO_INCOME","OWN_CAR_AGE_FOR_MODEL","PREV_DAYS_TERMINATION_MEAN","BUREAU_ACTIVE_TRADES","HAS_CC_HISTORY","REGION_RATING_CLIENT_W_CITY","BUREAU_MOST_RECENT_CREDIT_DAYS","BUREAU_LIMIT_SUM","NAME_FAMILY_STATUS","PREV_DAYS_TERMINATION_MIN","AMT_INCOME_TOTAL","POS_MONTHS_OBS","OBS_30_CNT_SOCIAL_CIRCLE","CC_PAY_TO_BAL_MEAN","NAME_HOUSING_TYPE","AMT_CREDIT","PREV_APPS_COUNT","DAYS_REGISTRATION","BUREAU_CREDIT_SUM","DAYS_BIRTH","CC_MONTHS_OBS","BUREAU_TRADES","AMT_REQ_CREDIT_BUREAU_MON_MISSING"],"feature_types":["float","float","int","float","int","float","int","int","float","float","float","float","int","float","float","float","float","float","float","float","float","float","float","float","int","float","float","float","float","float","float","int","float","float","float","int","float","float","int","float","float","int","float","int","float","float","float","int","float","int"],"gradient_booster":{"model":{"cats":{"enc":[],"feature_segments":[],"sorted_idx":[]},"gbtree_model_param":{"num_parallel_tree":"1","num_trees":"223"},"iteration_indptr":[0,1,2,3,4,5,6,7,8,9,10,11,12,13,14,15,16,17,18,19,20,21,22,23,24,25,26,27,28,29,30,31,32,33,34,35,36,37,38,39,40,41,42,43,44,45,46,47,48,49,50,51,52,53,54,55,56,57,58,59,60,61,62,63,64,65,66,67,68,69,70,71,72,73,74,75,76,77,78,79,80,81,82,83,84,85,86,87,88,89,90,91,92,93,94,95,96,97,98,99,100,101,102,103,104,105,106,107,108,109,110,111,112,113,114,115,116,117,118,119,120,121,122,123,124,125,126,127,128,129,130,131,132,133,134,135,136,137,138,139,140,141,142,143,144,145,146,147,148,149,150,151,152,153,154,155,156,157,158,159,160,161,162,163,164,165,166,167,168,169,170,171,172,173,174,175,176,177,178,179,180,181,182,183,184,185,186,187,188,189,190,191,192,193,194,195,196,197,198,199,200,201,202,203,204,205,206,207,208,209,210,211,212,213,214,215,216,217,218,219,220,221,222,223],"tree_info":[0,0,0,0,0,0,0,0,0,0,0,0,0,0,0,0,0,0,0,0,0,0,0,0,0,0,0,0,0,0,0,0,0,0,0,0,0,0,0,0,0,0,0,0,0,0,0,0,0,0,0,0,0,0,0,0,0,0,0,0,0,0,0,0,0,0,0,0,0,0,0,0,0,0,0,0,0,0,0,0,0,0,0,0,0,0,0,0,0,0,0,0,0,0,0,0,0,0,0,0,0,0,0,0,0,0,0,0,0,0,0,0,0,0,0,0,0,0,0,0,0,0,0,0,0,0,0,0,0,0,0,0,0,0,0,0,0,0,0,0,0,0,0,0,0,0,0,0,0,0,0,0,0,0,0,0,0,0,0,0,0,0,0,0,0,0,0,0,0,0,0,0,0,0,0,0,0,0,0,0,0,0,0,0,0,0,0,0,0,0,0,0,0,0,0,0,0,0,0,0,0,0,0,0,0,0,0,0,0,0,0,0,0,0,0,0,0,0,0,0,0,0,0],"trees":[{"base_weights":[2.2327475E-2,1.7803162E0,-3.5746294E-1,2.578803E-1,1.3227442E-1,5.2650473E-3,-5.9225526E-2],"categories":[],"categories_nodes":[],"categories_segments":[],"categories_sizes":[],"default_left":[0,0,0,0,0,0,0],"id":0,"left_children":[1,3,5,-1,-1,-1,-1],"loss_changes":[5.702523E2,3.837967E1,6.781083E1,0E0,0E0,0E0,0E0],"parents":[2147483647,0,0,1,1,2,2],"right_children":[2,4,6,-1,-1,-1,-1],"split_conditions":[3.664601E-1,2.4093114E-1,5.136287E-1,2.578803E-1,1.3227442E-1,5.2650473E-3,-5.9225526E-2],"split_indices":[0,0,0,0,0,0,0],"split_type":[0,0,0,0,0,0,0],"sum_hessian":[8.4433075E2,1.4672522E2,6.976055E2,4.500681E1,1.0171841E2,2.5539098E2,4.4221454E2],"tree_param":{"num_deleted":"0","num_feature":"50","num_nodes":"7","size_leaf_vector":"1"}},{"base_weights":[-7.0164045E-3,1.1762434E0,-3.8413E-1,1.4854644E-1,6.906141E-2,-1.4985015E-3,-6.054582E-2],"categories":[],"categories_nodes":[],"categories_segments":[],"categories_sizes":[],"default_left":[0,0,0,0,0,0,0],"id":1,"left_children":[1,3,5,-1,-1,-1,-1],"loss_changes":[3.8413162E2,2.6114166E1,5.3283997E1,0E0,0E0,0E0,0E0],"parents":[2147483647,0,0,1,1,2,2],"right_children":[2,4,6,-1,-1,-1,-1],"split_conditions":[3.9066553E-1,3.1872416E-1,5.2311033E-1,1.4854644E-1,6.906141E-2,-1.4985015E-3,-6.054582E-2],"split_indices":[0,0,0,0,0,0,0],"split_type":[0,0,0,0,0,0,0],"sum_hessian":[8.507878E2,2.0305907E2,6.477287E2,1.1777344E2,8.528563E1,2.4479045E2,4.0293823E2],"tree_param":{"num_deleted":"0","num_feature":"50","num_nodes":"7","size_leaf_vector":"1"}},{"base_weights":[2.9573927E-3,2.7014604E-1,-2.6861748E-1,-3.114987E-2,5.7099756E-2,-3.213275E-2,8.031519E-2],"categories":[],"categories_nodes":[],"categories_segments":[],"categories_sizes":[],"default_left":[0,0,0,0,0,0,0],"id":2,"left_children":[1,3,5,-1,-1,-1,-1],"loss_changes":[6.212893E1,7.640896E1,2.5280268E1,0E0,0E0,0E0,0E0],"parents":[2147483647,0,0,1,1,2,2],"right_children":[2,4,6,-1,-1,-1,-1],"split_conditions":[4.2809036E1,3E0,5.263158E-2,-3.114987E-2,5.7099756E-2,-3.213275E-2,8.031519E-2],"split_indices":[16,4,1,0,0,0,0],"split_type":[0,0,0,0,0,0,0],"sum_hessian":[8.4622156E2,4.265687E2,4.1965286E2,1.4536107E2,2.812076E2,4.0331845E2,1.6334398E1],"tree_param":{"num_deleted":"0","num_feature":"50","num_nodes":"7","size_leaf_vector":"1"}},{"base_weights":[-2.426455E-2,9.2422104E-1,-3.584161E-1,1.5260608E-1,6.356531E-2,6.8038376E-3,-5.223295E-2],"categories":[],"categories_nodes":[],"categories_segments":[],"categories_sizes":[],"default_left":[0,0,0,0,0,0,0],"id":3,"left_children":[1,3,5,-1,-1,-1,-1],"loss_changes":[2.7226126E2,3.4022903E1,4.4563766E1,0E0,0E0,0E0,0E0],"parents":[2147483647,0,0,1,1,2,2],"right_children":[2,4,6,-1,-1,-1,-1],"split_conditions":[3.858513E-1,2.4093114E-1,4.87469E-1,1.5260608E-1,6.356531E-2,6.8038376E-3,-5.223295E-2],"split_indices":[0,0,0,0,0,0,0],"split_type":[0,0,0,0,0,0,0],"sum_hessian":[8.488106E2,2.188312E2,6.2997943E2,6.3970936E1,1.5486028E2,1.7572339E2,4.5425604E2],"tree_param":{"num_deleted":"0","num_feature":"50","num_nodes":"7","size_leaf_vector":"1"}},{"base_weights":[-1.0726221E-2,9.1884416E-1,-3.029668E-1,7.4581265E-2,1.8369113E-1,-1.1787885E-3,-5.3187456E-2],"categories":[],"categories_nodes":[],"categories_segments":[],"categories_sizes":[],"default_left":[0,0,0,0,0,0,0],"id":4,"left_children":[1,3,5,-1,-1,-1,-1],"loss_changes":[2.3076302E2,2.5428299E1,4.303611E1,0E0,0E0,0E0,0E0],"parents":[2147483647,0,0,1,1,2,2],"right_children":[2,4,6,-1,-1,-1,-1],"split_conditions":[3.635292E-1,8.8011914E-1,5.2442974E-1,7.4581265E-2,1.8369113E-1,-1.1787885E-3,-5.3187456E-2],"split_indices":[0,3,0,0,0,0,0],"split_type":[0,0,0,0,0,0,0],"sum_hessian":[8.3933716E2,1.981938E2,6.411434E2,1.7438809E2,2.3805714E1,2.845029E2,3.566405E2],"tree_param":{"num_deleted":"0","num_feature":"50","num_nodes":"7","size_leaf_vector":"1"}},{"base_weights":[-2.2729496E-2,5.1837367E-1,-3.9782155E-1,1.7641352E-2,7.2717555E-2,-5.0480198E-2,-1.2190952E-2],"categories":[],"categories_nodes":[],"categories_segments":[],"categories_sizes":[],"default_left":[0,0,0,0,0,0,0],"id":5,"left_children":[1,3,5,-1,-1,-1,-1],"loss_changes":[1.7402417E2,2.4429161E1,1.4634399E1,0E0,0E0,0E0,0E0],"parents":[2147483647,0,0,1,1,2,2],"right_children":[2,4,6,-1,-1,-1,-1],"split_conditions":[4.4731027E-1,2.0295E4,1.1663204E0,1.7641352E-2,7.2717555E-2,-5.0480198E-2,-1.2190952E-2],"split_indices":[0,23,11,0,0,0,0],"split_type":[0,0,0,0,0,0,0],"sum_hessian":[8.473358E2,3.4611896E2,5.0121686E2,1.3471585E2,2.114031E2,3.5818756E2,1.4302931E2],"tree_param":{"num_deleted":"0","num_feature":"50","num_nodes":"7","size_leaf_vector":"1"}},{"base_weights":[3.3167742E-2,5.600596E-1,-3.310458E-1,9.363443E-2,3.1409085E-2,-3.75709E-2,7.523832E-2],"categories":[],"categories_nodes":[],"categories_segments":[],"categories_sizes":[],"default_left":[0,0,0,0,0,0,0],"id":6,"left_children":[1,3,5,-1,-1,-1,-1],"loss_changes":[1.6254254E2,3.0560204E1,2.5661613E1,0E0,0E0,0E0,0E0],"parents":[2147483647,0,0,1,1,2,2],"right_children":[2,4,6,-1,-1,-1,-1],"split_conditions":[4.382011E-1,2.9558277E-1,6.666667E-2,9.363443E-2,3.1409085E-2,-3.75709E-2,7.523832E-2],"split_indices":[0,0,1,0,0,0,0],"split_type":[0,0,0,0,0,0,0],"sum_hessian":[8.37181E2,3.4107462E2,4.961064E2,1.2927502E2,2.1179959E2,4.796015E2,1.6504938E1],"tree_param":{"num_deleted":"0","num_feature":"50","num_nodes":"7","size_leaf_vector":"1"}},{"base_weights":[1.9058114E-2,5.816841E-1,-2.926011E-1,3.6059286E-2,9.584074E-2,-3.2481813E-4,-4.7080904E-2],"categories":[],"categories_nodes":[],"categories_segments":[],"categories_sizes":[],"default_left":[0,0,0,0,0,0,0],"id":7,"left_children":[1,3,5,-1,-1,-1,-1],"loss_changes":[1.4955798E2,2.3591217E1,2.830577E1,0E0,0E0,0E0,0E0],"parents":[2147483647,0,0,1,1,2,2],"right_children":[2,4,6,-1,-1,-1,-1],"split_conditions":[4.0527695E-1,1.198E0,5.184175E-1,3.6059286E-2,9.584074E-2,-3.2481813E-4,-4.7080904E-2],"split_indices":[0,11,0,0,0,0,0],"split_type":[0,0,0,0,0,0,0],"sum_hessian":[8.4306976E2,2.989875E2,5.440823E2,1.9457893E2,1.0440855E2,2.0931406E2,3.3476822E2],"tree_param":{"num_deleted":"0","num_feature":"50","num_nodes":"7","size_leaf_vector":"1"}},{"base_weights":[-6.755092E-3,3.2332176E-1,-3.950697E-1,7.6137535E-2,1.7430557E-2,-6.730134E-2,-2.830317E-2],"categories":[],"categories_nodes":[],"categories_segments":[],"categories_sizes":[],"default_left":[0,0,0,0,0,0,0],"id":8,"left_children":[1,3,5,-1,-1,-1,-1],"loss_changes":[1.0869213E2,2.926155E1,1.1179558E1,0E0,0E0,0E0,0E0],"parents":[2147483647,0,0,1,1,2,2],"right_children":[2,4,6,-1,-1,-1,-1],"split_conditions":[4.8602346E-1,2.6462358E-1,2E0,7.6137535E-2,1.7430557E-2,-6.730134E-2,-2.830317E-2],"split_indices":[0,0,4,0,0,0,0],"split_type":[0,0,0,0,0,0,0],"sum_hessian":[8.380239E2,4.5343228E2,3.845916E2,1.0987954E2,3.4355276E2,1.0329712E2,2.812945E2],"tree_param":{"num_deleted":"0","num_feature":"50","num_nodes":"7","size_leaf_vector":"1"}},{"base_weights":[2.43259E-2,-1.2068083E-1,3.1926456E-1,-1.68856E-2,5.970313E-2,8.282904E-3,7.610367E-2],"categories":[],"categories_nodes":[],"categories_segments":[],"categories_sizes":[],"default_left":[0,0,0,0,0,0,0],"id":9,"left_children":[1,3,5,-1,-1,-1,-1],"loss_changes":[3.594754E1,2.0008095E1,2.8609753E1,0E0,0E0,0E0,0E0],"parents":[2147483647,0,0,1,1,2,2],"right_children":[2,4,6,-1,-1,-1,-1],"split_conditions":[1.1716E0,9.254E-1,-9.68E2,-1.68856E-2,5.970313E-2,8.282904E-3,7.610367E-2],"split_indices":[11,14,13,0,0,0,0],"split_type":[0,0,0,0,0,0,0],"sum_hessian":[8.31018E2,5.5909357E2,2.7192447E2,5.275091E2,3.158446E1,1.809942E2,9.093026E1],"tree_param":{"num_deleted":"0","num_feature":"50","num_nodes":"7","size_leaf_vector":"1"}},{"base_weights":[9.4170513E-4,4.0801626E-1,-2.4729672E-1,5.226788E-2,-2.3851007E-2,-2.849472E-2,5.9017837E-2],"categories":[],"categories_nodes":[],"categories_segments":[],"categories_sizes":[],"default_left":[0,0,0,0,0,0,0],"id":10,"left_children":[1,3,5,-1,-1,-1,-1],"loss_changes":[8.5056946E1,2.4260124E1,1.7327942E1,0E0,0E0,0E0,0E0],"parents":[2147483647,0,0,1,1,2,2],"right_children":[2,4,6,-1,-1,-1,-1],"split_conditions":[4.0527695E-1,5.456263E1,5.882353E-2,5.226788E-2,-2.3851007E-2,-2.849472E-2,5.9017837E-2],"split_indices":[0,16,1,0,0,0,0],"split_type":[0,0,0,0,0,0,0],"sum_hessian":[8.3172577E2,3.1384607E2,5.178797E2,2.6738303E2,4.6463043E1,4.9875583E2,1.9123856E1],"tree_param":{"num_deleted":"0","num_feature":"50","num_nodes":"7","size_leaf_vector":"1"}},{"base_weights":[1.4253066E-2,2.6424852E-1,-3.0693242E-1,5.6582293E-4,4.2579584E-2,-4.4822503E-2,3.799665E-3],"categories":[],"categories_nodes":[],"categories_segments":[],"categories_sizes":[],"default_left":[0,0,0,0,0,0,0],"id":11,"left_children":[1,3,5,-1,-1,-1,-1],"loss_changes":[6.756833E1,1.9748943E1,1.8040092E1,0E0,0E0,0E0,0E0],"parents":[2147483647,0,0,1,1,2,2],"right_children":[2,4,6,-1,-1,-1,-1],"split_conditions":[4.8259094E-1,2.07945E4,1.1716E0,5.6582293E-4,4.2579584E-2,-4.4822503E-2,3.799665E-3],"split_indices":[0,23,11,0,0,0,0],"split_type":[0,0,0,0,0,0,0],"sum_hessian":[8.314515E2,4.680388E2,3.634127E2,1.8195572E2,2.8608307E2,2.5674527E2,1.0666743E2],"tree_param":{"num_deleted":"0","num_feature":"50","num_nodes":"7","size_leaf_vector":"1"}},{"base_weights":[-1.508353E-2,1.766664E-1,-3.8148156E-1,1.0414073E-2,9.419234E-2,-5.1621586E-2,-1.4094027E-2],"categories":[],"categories_nodes":[],"categories_segments":[],"categories_sizes":[],"default_left":[0,0,0,0,0,0,0],"id":12,"left_children":[1,3,5,-1,-1,-1,-1],"loss_changes":[5.9382095E1,3.0318731E1,9.044785E0,0E0,0E0,0E0,0E0],"parents":[2147483647,0,0,1,1,2,2],"right_children":[2,4,6,-1,-1,-1,-1],"split_conditions":[5.2311033E-1,1.396E0,1.1452019E0,1.0414073E-2,9.419234E-2,-5.1621586E-2,-1.4094027E-2],"split_indices":[0,11,11,0,0,0,0],"split_type":[0,0,0,0,0,0,0],"sum_hessian":[8.354187E2,5.501129E2,2.8530573E2,5.076791E2,4.243382E1,1.7920013E2,1.061056E2],"tree_param":{"num_deleted":"0","num_feature":"50","num_nodes":"7","size_leaf_vector":"1"}},{"base_weights":[-2.2199526E-2,-5.6939565E-2,9.08074E-2,2.923537E-3,-4.172566E-2],"categories":[],"categories_nodes":[],"categories_segments":[],"categories_sizes":[],"default_left":[0,0,0,0,0],"id":13,"left_children":[1,3,-1,-1,-1],"loss_changes":[2.7392496E1,2.5338408E1,0E0,0E0,0E0],"parents":[2147483647,0,0,1,1],"right_children":[2,4,-1,-1,-1],"split_conditions":[1.4224E0,8.6625595E0,9.08074E-2,2.923537E-3,-4.172566E-2],"split_indices":[11,15,0,0,0],"split_type":[0,0,0,0,0],"sum_hessian":[8.345999E2,8.090797E2,2.5520227E1,6.566313E2,1.524484E2],"tree_param":{"num_deleted":"0","num_feature":"50","num_nodes":"5","size_leaf_vector":"1"}},{"base_weights":[2.668183E-2,2.6310506E-1,-2.194235E-1,1.9272786E-2,7.239376E-2,-1.1744007E-2,-5.754307E-2],"categories":[],"categories_nodes":[],"categories_segments":[],"categories_sizes":[],"default_left":[0,0,0,0,0,0,0],"id":14,"left_children":[1,3,5,-1,-1,-1,-1],"loss_changes":[4.8834484E1,1.3177235E1,1.4603222E1,0E0,0E0,0E0,0E0],"parents":[2147483647,0,0,1,1,2,2],"right_children":[2,4,6,-1,-1,-1,-1],"split_conditions":[4.5275405E-1,1.0007912E0,6.623565E-1,1.9272786E-2,7.239376E-2,-1.1744007E-2,-5.754307E-2],"split_indices":[0,3,0,0,0,0,0],"split_type":[0,0,0,0,0,0,0],"sum_hessian":[8.2933545E2,4.22812E2,4.0652344E2,3.7294748E2,4.986455E1,3.2116925E2,8.53542E1],"tree_param":{"num_deleted":"0","num_feature":"50","num_nodes":"7","size_leaf_vector":"1"}},{"base_weights":[2.9838715E-2,1.9790971E-1,-2.905639E-1,2.8546466E-2,-1.4391604E-2,-4.166087E-2,-3.3023958E-3],"categories":[],"categories_nodes":[],"categories_segments":[],"categories_sizes":[],"default_left":[0,0,0,0,0,0,0],"id":15,"left_children":[1,3,5,-1,-1,-1,-1],"loss_changes":[4.508137E1,1.6623808E1,9.28772E0,0E0,0E0,0E0,0E0],"parents":[2147483647,0,0,1,1,2,2],"right_children":[2,4,6,-1,-1,-1,-1],"split_conditions":[5.136287E-1,7.0581794E0,2.0432E-1,2.8546466E-2,-1.4391604E-2,-4.166087E-2,-3.3023958E-3],"split_indices":[0,15,27,0,0,0,0],"split_type":[0,0,0,0,0,0,0],"sum_hessian":[8.268203E2,5.4358685E2,2.8323343E2,4.334005E2,1.1018637E2,1.8809032E2,9.5143105E1],"tree_param":{"num_deleted":"0","num_feature":"50","num_nodes":"7","size_leaf_vector":"1"}},{"base_weights":[-2.1826666E-2,3.6970127E-1,-2.0078401E-1,1.2959661E-2,5.7007987E-2,-2.3203505E-2,7.181947E-2],"categories":[],"categories_nodes":[],"categories_segments":[],"categories_sizes":[],"default_left":[0,0,0,0,0,0,0],"id":16,"left_children":[1,3,5,-1,-1,-1,-1],"loss_changes":[5.8536747E1,1.22441025E1,1.7288506E1,0E0,0E0,0E0,0E0],"parents":[2147483647,0,0,1,1,2,2],"right_children":[2,4,6,-1,-1,-1,-1],"split_conditions":[3.557232E-1,1.565E-1,2.3076923E-1,1.2959661E-2,5.7007987E-2,-2.3203505E-2,7.181947E-2],"split_indices":[0,27,1,0,0,0,0],"split_type":[0,0,0,0,0,0,0],"sum_hessian":[8.2514496E2,2.571706E2,5.6797437E2,1.20734116E2,1.3643648E2,5.529095E2,1.5064851E1],"tree_param":{"num_deleted":"0","num_feature":"50","num_nodes":"7","size_leaf_vector":"1"}},{"base_weights":[-5.742515E-3,1.24422766E-1,-3.7887207E-1,-6.887278E-3,2.6196688E-2,-4.645055E-2,5.125198E-3],"categories":[],"categories_nodes":[],"categories_segments":[],"categories_sizes":[],"default_left":[0,0,0,0,0,0,0],"id":17,"left_children":[1,3,5,-1,-1,-1,-1],"loss_changes":[4.029804E1,1.6448858E1,8.022184E0,0E0,0E0,0E0,0E0],"parents":[2147483647,0,0,1,1,2,2],"right_children":[2,4,6,-1,-1,-1,-1],"split_conditions":[5.5740696E-1,5E0,-2.51E2,-6.887278E-3,2.6196688E-2,-4.645055E-2,5.125198E-3],"split_indices":[0,24,36,0,0,0,0],"split_type":[0,0,0,0,0,0,0],"sum_hessian":[8.1986237E2,6.1029517E2,2.0956718E2,2.5476347E2,3.5553168E2,1.7443854E2,3.512865E1],"tree_param":{"num_deleted":"0","num_feature":"50","num_nodes":"7","size_leaf_vector":"1"}},{"base_weights":[-1.687388E-2,2.8105703E-1,-1.404706E-1,1.785449E-2,8.372111E-2,-1.7630843E-2,8.930726E-2],"categories":[],"categories_nodes":[],"categories_segments":[],"categories_sizes":[],"default_left":[0,0,0,0,0,0,0],"id":18,"left_children":[1,3,5,-1,-1,-1,-1],"loss_changes":[3.0981615E1,1.3322758E1,2.2796715E1,0E0,0E0,0E0,0E0],"parents":[2147483647,0,0,1,1,2,2],"right_children":[2,4,6,-1,-1,-1,-1],"split_conditions":[3.405923E-1,6.562011E-1,2.3076923E-1,1.785449E-2,8.372111E-2,-1.7630843E-2,8.930726E-2],"split_indices":[0,3,1,0,0,0,0],"split_type":[0,0,0,0,0,0,0],"sum_hessian":[8.309986E2,2.4179056E2,5.8920807E2,2.0973643E2,3.2054127E1,5.734702E2,1.5737855E1],"tree_param":{"num_deleted":"0","num_feature":"50","num_nodes":"7","size_leaf_vector":"1"}},{"base_weights":[1.3320204E-2,1.291937E-1,-2.572471E-1,2.3270022E-2,-1.5696025E-2,-4.342134E-2,-4.9274764E-3],"categories":[],"categories_nodes":[],"categories_segments":[],"categories_sizes":[],"default_left":[0,0,0,0,0,0,0],"id":19,"left_children":[1,3,5,-1,-1,-1,-1],"loss_changes":[2.6029152E1,1.7388403E1,9.058208E0,0E0,0E0,0E0,0E0],"parents":[2147483647,0,0,1,1,2,2],"right_children":[2,4,6,-1,-1,-1,-1],"split_conditions":[5.2442974E-1,4.81807E1,6E0,2.3270022E-2,-1.5696025E-2,-4.342134E-2,-4.9274764E-3],"split_indices":[0,16,24,0,0,0,0],"split_type":[0,0,0,0,0,0,0],"sum_hessian":[8.199339E2,5.7590753E2,2.4402635E2,4.2361365E2,1.5229391E2,1.2890244E2,1.1512391E2],"tree_param":{"num_deleted":"0","num_feature":"50","num_nodes":"7","size_leaf_vector":"1"}},{"base_weights":[-3.2825965E-2,-1.8655989E-1,1.5157233E-1,-5.4763104E-3,-3.581952E-2,-5.6439047E-3,3.680963E-2],"categories":[],"categories_nodes":[],"categories_segments":[],"categories_sizes":[],"default_left":[0,0,0,0,0,0,0],"id":20,"left_children":[1,3,5,-1,-1,-1,-1],"loss_changes":[2.3456654E1,1.00986395E1,1.7069979E1,0E0,0E0,0E0,0E0],"parents":[2147483647,0,0,1,1,2,2],"right_children":[2,4,6,-1,-1,-1,-1],"split_conditions":[1.1386E0,4.740513E-1,2.53845E4,-5.4763104E-3,-3.581952E-2,-5.6439047E-3,3.680963E-2],"split_indices":[11,0,23,0,0,0,0],"split_type":[0,0,0,0,0,0,0],"sum_hessian":[8.174581E2,4.4576373E2,3.716944E2,2.5587534E2,1.898884E2,1.9145912E2,1.8023526E2],"tree_param":{"num_deleted":"0","num_feature":"50","num_nodes":"7","size_leaf_vector":"1"}},{"base_weights":[-2.4585223E-2,1.922319E-1,-1.4345525E-1,9.148078E-3,6.7093566E-2,-1.7600782E-2,7.0815764E-2],"categories":[],"categories_nodes":[],"categories_segments":[],"categories_sizes":[],"default_left":[0,0,0,0,0,0,0],"id":21,"left_children":[1,3,5,-1,-1,-1,-1],"loss_changes":[2.1278738E1,1.380529E1,1.5389922E1,0E0,0E0,0E0,0E0],"parents":[2147483647,0,0,1,1,2,2],"right_children":[2,4,6,-1,-1,-1,-1],"split_conditions":[3.635292E-1,-8.59E2,2.3076923E-1,9.148078E-3,6.7093566E-2,-1.7600782E-2,7.0815764E-2],"split_indices":[0,18,1,0,0,0,0],"split_type":[0,0,0,0,0,0,0],"sum_hessian":[8.152697E2,2.8760208E2,5.276676E2,2.4251607E2,4.508601E1,5.120609E2,1.5606713E1],"tree_param":{"num_deleted":"0","num_feature":"50","num_nodes":"7","size_leaf_vector":"1"}},{"base_weights":[1.6783373E-2,-2.9009253E-1,1.0466364E-1,-3.6746264E-2,4.1924562E-2,5.1410347E-3,6.854406E-2],"categories":[],"categories_nodes":[],"categories_segments":[],"categories_sizes":[],"default_left":[0,0,0,0,0,0,0],"id":22,"left_children":[1,3,5,-1,-1,-1,-1],"loss_changes":[2.2237816E1,1.0848842E1,1.9627764E1,0E0,0E0,0E0,0E0],"parents":[2147483647,0,0,1,1,2,2],"right_children":[2,4,6,-1,-1,-1,-1],"split_conditions":[-2.651E3,4.214231E-1,1.396E0,-3.6746264E-2,4.1924562E-2,5.1410347E-3,6.854406E-2],"split_indices":[5,9,11,0,0,0,0],"split_type":[0,0,0,0,0,0,0],"sum_hessian":[8.139606E2,1.7864195E2,6.3531866E2,1.6324594E2,1.53960085E1,5.869426E2,4.8376038E1],"tree_param":{"num_deleted":"0","num_feature":"50","num_nodes":"7","size_leaf_vector":"1"}},{"base_weights":[-6.7113955E-3,-1.8536611E-1,1.3278177E-1,-2.3698494E-2,3.7678443E-2,-9.624627E-3,2.8758803E-2],"categories":[],"categories_nodes":[],"categories_segments":[],"categories_sizes":[],"default_left":[0,0,0,0,0,0,0],"id":23,"left_children":[1,3,5,-1,-1,-1,-1],"loss_changes":[2.056959E1,1.0945482E1,1.6576519E1,0E0,0E0,0E0,0E0],"parents":[2147483647,0,0,1,1,2,2],"right_children":[2,4,6,-1,-1,-1,-1],"split_conditions":[6E0,-1E0,-1.709E3,-2.3698494E-2,3.7678443E-2,-9.624627E-3,2.8758803E-2],"split_indices":[24,2,5,0,0,0,0],"split_type":[0,0,0,0,0,0,0],"sum_hessian":[8.154499E2,3.5681622E2,4.586337E2,3.2945642E2,2.7359798E1,1.8573682E2,2.7289685E2],"tree_param":{"num_deleted":"0","num_feature":"50","num_nodes":"7","size_leaf_vector":"1"}},{"base_weights":[-1.5179231E-2,-1.413806E-1,2.0734484E-1,-3.0500293E-3,-4.4991832E-2,-1.5673876E-3,5.20069E-2],"categories":[],"categories_nodes":[],"categories_segments":[],"categories_sizes":[],"default_left":[0,0,0,0,0,0,0],"id":24,"left_children":[1,3,5,-1,-1,-1,-1],"loss_changes":[2.3048801E1,1.7836071E1,2.0765661E1,0E0,0E0,0E0,0E0],"parents":[2147483647,0,0,1,1,2,2],"right_children":[2,4,6,-1,-1,-1,-1],"split_conditions":[1E0,5.5740696E-1,1.702E-1,-3.0500293E-3,-4.4991832E-2,-1.5673876E-3,5.20069E-2],"split_indices":[6,0,27,0,0,0,0],"split_type":[0,0,0,0,0,0,0],"sum_hessian":[8.105239E2,5.1836426E2,2.9215964E2,3.853676E2,1.3299664E2,1.7331194E2,1.1884772E2],"tree_param":{"num_deleted":"0","num_feature":"50","num_nodes":"7","size_leaf_vector":"1"}},{"base_weights":[1.6902018E-3,2.4363376E-1,-9.3760796E-2,1.5954375E-2,7.3497996E-2,-1.2793638E-2,6.4432584E-2],"categories":[],"categories_nodes":[],"categories_segments":[],"categories_sizes":[],"default_left":[0,0,0,0,0,0,0],"id":25,"left_children":[1,3,5,-1,-1,-1,-1],"loss_changes":[1.8939646E1,8.999607E0,1.5248398E1,0E0,0E0,0E0,0E0],"parents":[2147483647,0,0,1,1,2,2],"right_children":[2,4,6,-1,-1,-1,-1],"split_conditions":[3.2601613E-1,1.0176684E0,1.4223962E0,1.5954375E-2,7.3497996E-2,-1.2793638E-2,6.4432584E-2],"split_indices":[0,3,11,0,0,0,0],"split_type":[0,0,0,0,0,0,0],"sum_hessian":[8.10174E2,2.2700723E2,5.831668E2,1.9948969E2,2.7517544E1,5.613098E2,2.1856972E1],"tree_param":{"num_deleted":"0","num_feature":"50","num_nodes":"7","size_leaf_vector":"1"}},{"base_weights":[-1.2890296E-2,5.5130202E-2,-3.7035406E-1,-5.4279203E-3,2.4350068E-2,-4.5086294E-2,1.8655045E-2],"categories":[],"categories_nodes":[],"categories_segments":[],"categories_sizes":[],"default_left":[0,0,0,0,0,0,0],"id":26,"left_children":[1,3,5,-1,-1,-1,-1],"loss_changes":[1.9856827E1,1.4223232E1,6.273037E0,0E0,0E0,0E0,0E0],"parents":[2147483647,0,0,1,1,2,2],"right_children":[2,4,6,-1,-1,-1,-1],"split_conditions":[9.034907E0,1.96175E-1,9.378034E-3,-5.4279203E-3,2.4350068E-2,-4.5086294E-2,1.8655045E-2],"split_indices":[15,27,9,0,0,0,0],"split_type":[0,0,0,0,0,0,0],"sum_hessian":[8.074552E2,6.819233E2,1.2553187E2,4.3362457E2,2.4829872E2,1.1050831E2,1.5023563E1],"tree_param":{"num_deleted":"0","num_feature":"50","num_nodes":"7","size_leaf_vector":"1"}},{"base_weights":[6.8994593E-3,-1.24535896E-1,1.6976255E-1,-1.900592E-2,2.7901668E-2,1.1521256E-2,1.0421959E-1],"categories":[],"categories_nodes":[],"categories_segments":[],"categories_sizes":[],"default_left":[0,0,0,0,0,0,0],"id":27,"left_children":[1,3,5,-1,-1,-1,-1],"loss_changes":[1.7578712E1,1.2285785E1,1.6849707E1,0E0,0E0,0E0,0E0],"parents":[2147483647,0,0,1,1,2,2],"right_children":[2,4,6,-1,-1,-1,-1],"split_conditions":[-7.12E2,1.71E6,9.52381E-2,-1.900592E-2,2.7901668E-2,1.1521256E-2,1.0421959E-1],"split_indices":[21,45,1,0,0,0,0],"split_type":[0,0,0,0,0,0,0],"sum_hessian":[8.112678E2,4.4960217E2,3.6166562E2,3.8907474E2,6.0527424E1,3.4570996E2,1.5955662E1],"tree_param":{"num_deleted":"0","num_feature":"50","num_nodes":"7","size_leaf_vector":"1"}},{"base_weights":[2.792908E-2,2.2970836E-3,1.0375295E-1,4.3096817E-3,-4.9530987E-2],"categories":[],"categories_nodes":[],"categories_segments":[],"categories_sizes":[],"default_left":[0,0,0,0,0],"id":28,"left_children":[1,3,-1,-1,-1],"loss_changes":[2.1005928E1,1.6289415E1,0E0,0E0,0E0],"parents":[2147483647,0,0,1,1],"right_children":[2,4,-1,-1,-1],"split_conditions":[5.9090906E-1,6.720509E-1,1.0375295E-1,4.3096817E-3,-4.9530987E-2],"split_indices":[1,0,0,0,0],"split_type":[0,0,0,0,0],"sum_hessian":[8.071873E2,7.920889E2,1.5098384E1,7.362864E2,5.580255E1],"tree_param":{"num_deleted":"0","num_feature":"50","num_nodes":"5","size_leaf_vector":"1"}},{"base_weights":[3.603578E-3,-3.7266582E-2,5.2048224E-1,1.1062844E-3,-4.3980047E-2,1.0794961E-2,9.031839E-2],"categories":[],"categories_nodes":[],"categories_segments":[],"categories_sizes":[],"default_left":[0,0,0,0,0,0,0],"id":29,"left_children":[1,3,5,-1,-1,-1,-1],"loss_changes":[1.736835E1,1.48550415E1,9.023663E0,0E0,0E0,0E0,0E0],"parents":[2147483647,0,0,1,1,2,2],"right_children":[2,4,6,-1,-1,-1,-1],"split_conditions":[9.254E-1,1.156742E1,1.6792308E-1,1.1062844E-3,-4.3980047E-2,1.0794961E-2,9.031839E-2],"split_indices":[14,15,27,0,0,0,0],"split_type":[0,0,0,0,0,0,0],"sum_hessian":[8.125828E2,7.5733875E2,5.52441E1,6.804986E2,7.684012E1,2.9670834E1,2.5573263E1],"tree_param":{"num_deleted":"0","num_feature":"50","num_nodes":"7","size_leaf_vector":"1"}},{"base_weights":[-2.29778E-2,2.3249744E-2,-4.045863E-1,-1.1190642E-2,1.4419463E-2,-5.316766E-2,9.295124E-3],"categories":[],"categories_nodes":[],"categories_segments":[],"categories_sizes":[],"default_left":[0,0,0,0,0,0,0],"id":30,"left_children":[1,3,5,-1,-1,-1,-1],"loss_changes":[1.4408367E1,1.20276785E1,5.8263664E0,0E0,0E0,0E0,0E0],"parents":[2147483647,0,0,1,1,2,2],"right_children":[2,4,6,-1,-1,-1,-1],"split_conditions":[6.4232135E-1,3.028E0,6.2E0,-1.1190642E-2,1.4419463E-2,-5.316766E-2,9.295124E-3],"split_indices":[0,22,22,0,0,0,0],"split_type":[0,0,0,0,0,0,0],"sum_hessian":[8.0909656E2,7.25862E2,8.323457E1,3.429681E2,3.828939E2,6.6025925E1,1.720865E1],"tree_param":{"num_deleted":"0","num_feature":"50","num_nodes":"7","size_leaf_vector":"1"}},{"base_weights":[-7.442106E-3,-1.233405E-1,1.9606423E-1,-1.5743515E-2,6.0931634E-2,9.37606E-3,5.705407E-2],"categories":[],"categories_nodes":[],"categories_segments":[],"categories_sizes":[],"default_left":[0,0,0,0,0,0,0],"id":31,"left_children":[1,3,5,-1,-1,-1,-1],"loss_changes":[1.930886E1,1.350412E1,1.1115513E1,0E0,0E0,0E0,0E0],"parents":[2147483647,0,0,1,1,2,2],"right_children":[2,4,6,-1,-1,-1,-1],"split_conditions":[1.1663204E0,7E0,2.376E-1,-1.5743515E-2,6.0931634E-2,9.37606E-3,5.705407E-2],"split_indices":[11,48,27,0,0,0,0],"split_type":[0,0,0,0,0,0,0],"sum_hessian":[8.085292E2,5.1640326E2,2.9212595E2,4.971917E2,1.9211535E1,2.3435431E2,5.7771626E1],"tree_param":{"num_deleted":"0","num_feature":"50","num_nodes":"7","size_leaf_vector":"1"}},{"base_weights":[-2.0448437E-2,-6.6044606E-2,4.6332282E-1,-1.7389884E-2,1.1308665E-2,1.3484775E-2,9.131237E-2],"categories":[],"categories_nodes":[],"categories_segments":[],"categories_sizes":[],"default_left":[0,0,0,0,0,0,0],"id":32,"left_children":[1,3,5,-1,-1,-1,-1],"loss_changes":[1.7990377E1,1.4460436E1,9.767474E0,0E0,0E0,0E0,0E0],"parents":[2147483647,0,0,1,1,2,2],"right_children":[2,4,6,-1,-1,-1,-1],"split_conditions":[1.396E0,1E0,2.5182E4,-1.7389884E-2,1.1308665E-2,1.3484775E-2,9.131237E-2],"split_indices":[11,6,23,0,0,0,0],"split_type":[0,0,0,0,0,0,0],"sum_hessian":[8.0365375E2,7.383779E2,6.5275826E1,4.609736E2,2.7740433E2,4.14819E1,2.3793926E1],"tree_param":{"num_deleted":"0","num_feature":"50","num_nodes":"7","size_leaf_vector":"1"}},{"base_weights":[-8.927188E-3,-3.913657E-2,6.06424E-1,-1.4588966E-2,1.4641516E-2,9.095509E-2,2.0061398E-2],"categories":[],"categories_nodes":[],"categories_segments":[],"categories_sizes":[],"default_left":[0,0,0,0,0,0,0],"id":33,"left_children":[1,3,5,-1,-1,-1,-1],"loss_changes":[1.516713E1,1.5484606E1,3.784875E0,0E0,0E0,0E0,0E0],"parents":[2147483647,0,0,1,1,2,2],"right_children":[2,4,6,-1,-1,-1,-1],"split_conditions":[7E0,1.1716E0,-1.1E3,-1.4588966E-2,1.4641516E-2,9.095509E-2,2.0061398E-2],"split_indices":[48,11,36,0,0,0,0],"split_type":[0,0,0,0,0,0,0],"sum_hessian":[8.0451953E2,7.713345E2,3.3185062E1,4.9031268E2,2.810218E2,1.5443016E1,1.7742044E1],"tree_param":{"num_deleted":"0","num_feature":"50","num_nodes":"7","size_leaf_vector":"1"}},{"base_weights":[1.9860923E-2,-2.004482E-1,1.1870515E-1,-2.9619623E-2,2.5469864E-2,-1.418213E-2,2.2174494E-2],"categories":[],"categories_nodes":[],"categories_segments":[],"categories_sizes":[],"default_left":[0,0,0,0,0,0,0],"id":34,"left_children":[1,3,5,-1,-1,-1,-1],"loss_changes":[1.746293E1,1.1207982E1,1.5000452E1,0E0,0E0,0E0,0E0],"parents":[2147483647,0,0,1,1,2,2],"right_children":[2,4,6,-1,-1,-1,-1],"split_conditions":[-1.7598E4,3E0,3E0,-2.9619623E-2,2.5469864E-2,-1.418213E-2,2.2174494E-2],"split_indices":[46,30,4,0,0,0,0],"split_type":[0,0,0,0,0,0,0],"sum_hessian":[7.914609E2,2.435297E2,5.4793115E2,2.0264578E2,4.0883907E1,1.5475806E2,3.931731E2],"tree_param":{"num_deleted":"0","num_feature":"50","num_nodes":"7","size_leaf_vector":"1"}},{"base_weights":[8.511117E-3,-1.4923705E-1,1.2741941E-1,-1.9046852E-2,5.406142E-2,-5.2007763E-3,3.2223385E-2],"categories":[],"categories_nodes":[],"categories_segments":[],"categories_sizes":[],"default_left":[0,0,0,0,0,0,0],"id":35,"left_children":[1,3,5,-1,-1,-1,-1],"loss_changes":[1.5330522E1,1.0510006E1,1.636675E1,0E0,0E0,0E0,0E0],"parents":[2147483647,0,0,1,1,2,2],"right_children":[2,4,6,-1,-1,-1,-1],"split_conditions":[6E0,9.4999E-1,-7.12E2,-1.9046852E-2,5.406142E-2,-5.2007763E-3,3.2223385E-2],"split_indices":[24,14,21,0,0,0,0],"split_type":[0,0,0,0,0,0,0],"sum_hessian":[8.072292E2,3.464029E2,4.6082626E2,3.302819E2,1.6121002E1,2.4179471E2,2.1903157E2],"tree_param":{"num_deleted":"0","num_feature":"50","num_nodes":"7","size_leaf_vector":"1"}},{"base_weights":[-1.604257E-3,-1.0396886E-1,1.6816169E-1,-3.8109865E-2,-2.6431242E-3,-6.850518E-3,4.3568905E-2],"categories":[],"categories_nodes":[],"categories_segments":[],"categories_sizes":[],"default_left":[0,0,0,0,0,0,0],"id":36,"left_children":[1,3,5,-1,-1,-1,-1],"loss_changes":[1.4085116E1,1.0813577E1,1.9453972E1,0E0,0E0,0E0,0E0],"parents":[2147483647,0,0,1,1,2,2],"right_children":[2,4,6,-1,-1,-1,-1],"split_conditions":[1E0,2E0,1E0,-3.8109865E-2,-2.6431242E-3,-6.850518E-3,4.3568905E-2],"split_indices":[6,4,7,0,0,0,0],"split_type":[0,0,0,0,0,0,0],"sum_hessian":[8.004828E2,5.0058218E2,2.999006E2,1.0515809E2,3.954241E2,1.6110207E2,1.3879855E2],"tree_param":{"num_deleted":"0","num_feature":"50","num_nodes":"7","size_leaf_vector":"1"}},{"base_weights":[-1.9526526E-2,-4.6094693E-2,5.9082557E-2,3.1009749E-2,-9.26438E-3],"categories":[],"categories_nodes":[],"categories_segments":[],"categories_sizes":[],"default_left":[0,0,0,0,0],"id":37,"left_children":[1,3,-1,-1,-1],"loss_changes":[1.3264831E1,1.308435E1,0E0,0E0,0E0],"parents":[2147483647,0,0,1,1],"right_children":[2,4,-1,-1,-1],"split_conditions":[5E0,1E0,5.9082557E-2,3.1009749E-2,-9.26438E-3],"split_indices":[30,35,0,0,0],"split_type":[0,0,0,0,0],"sum_hessian":[8.046147E2,7.7548096E2,2.9133713E1,8.6358665E1,6.8912225E2],"tree_param":{"num_deleted":"0","num_feature":"50","num_nodes":"5","size_leaf_vector":"1"}},{"base_weights":[7.5221057E-3,-1.5868234E-2,9.273727E-2,1.6359173E-2,-1.066867E-2],"categories":[],"categories_nodes":[],"categories_segments":[],"categories_sizes":[],"default_left":[0,0,0,0,0],"id":38,"left_children":[1,3,-1,-1,-1],"loss_changes":[1.7354269E1,1.2933057E1,0E0,0E0,0E0],"parents":[2147483647,0,0,1,1],"right_children":[2,4,-1,-1,-1],"split_conditions":[6.25E-1,3.500225E-1,9.273727E-2,1.6359173E-2,-1.066867E-2],"split_indices":[1,0,0,0,0],"split_type":[0,0,0,0,0],"sum_hessian":[7.981696E2,7.8316864E2,1.5000988E1,2.6181262E2,5.21356E2],"tree_param":{"num_deleted":"0","num_feature":"50","num_nodes":"5","size_leaf_vector":"1"}},{"base_weights":[-2.2776628E-2,-5.3480696E-2,5.198216E-1,-1.5552974E-3,-5.3055525E-2,1.2738933E-2,9.0697266E-2],"categories":[],"categories_nodes":[],"categories_segments":[],"categories_sizes":[],"default_left":[0,0,0,0,0,0,0],"id":39,"left_children":[1,3,5,-1,-1,-1,-1],"loss_changes":[1.3395548E1,1.3667572E1,5.96778E0,0E0,0E0,0E0,0E0],"parents":[2147483647,0,0,1,1,2,2],"right_children":[2,4,6,-1,-1,-1,-1],"split_conditions":[9.244294E-1,6.6839E-1,-5.58E2,-1.5552974E-3,-5.3055525E-2,1.2738933E-2,9.0697266E-2],"split_indices":[9,0,21,0,0,0,0],"split_type":[0,0,0,0,0,0,0],"sum_hessian":[7.907124E2,7.5263043E2,3.8082005E1,7.0198517E2,5.0645252E1,2.2212109E1,1.5869895E1],"tree_param":{"num_deleted":"0","num_feature":"50","num_nodes":"7","size_leaf_vector":"1"}},{"base_weights":[3.1910058E-2,-1.8515702E-1,1.0311657E-1,-2.5211954E-2,4.73276E-2,2.7972406E-2,-2.410787E-3],"categories":[],"categories_nodes":[],"categories_segments":[],"categories_sizes":[],"default_left":[0,0,0,0,0,0,0],"id":40,"left_children":[1,3,5,-1,-1,-1,-1],"loss_changes":[1.2434013E1,9.369247E0,1.3611641E1,0E0,0E0,0E0,0E0],"parents":[2147483647,0,0,1,1,2,2],"right_children":[2,4,6,-1,-1,-1,-1],"split_conditions":[1.6506E4,6.599862E-1,8.224386E3,-2.5211954E-2,4.73276E-2,2.7972406E-2,-2.410787E-3],"split_indices":[23,9,26,0,0,0,0],"split_type":[0,0,0,0,0,0,0],"sum_hessian":[7.932712E2,1.9396964E2,5.993016E2,1.788646E2,1.510504E1,2.484377E2,3.5086386E2],"tree_param":{"num_deleted":"0","num_feature":"50","num_nodes":"7","size_leaf_vector":"1"}},{"base_weights":[-1.01453E-2,-3.3071734E-2,8.905383E-2,-6.7022755E-3,3.7036087E-2],"categories":[],"categories_nodes":[],"categories_segments":[],"categories_sizes":[],"default_left":[0,0,0,0,0],"id":41,"left_children":[1,3,-1,-1,-1],"loss_changes":[1.6747824E1,1.09281E1,0E0,0E0,0E0],"parents":[2147483647,0,0,1,1],"right_children":[2,4,-1,-1,-1],"split_conditions":[6.5384614E-1,9.254E-1,8.905383E-2,-6.7022755E-3,3.7036087E-2],"split_indices":[1,14,0,0,0],"split_type":[0,0,0,0,0],"sum_hessian":[7.989223E2,7.8378784E2,1.5134504E1,7.267936E2,5.6994247E1],"tree_param":{"num_deleted":"0","num_feature":"50","num_nodes":"5","size_leaf_vector":"1"}},{"base_weights":[1.1605446E-2,-1.3676083E-1,1.1441094E-1,5.2054323E-2,-1.8073088E-2,6.3138835E-2,5.655615E-3],"categories":[],"categories_nodes":[],"categories_segments":[],"categories_sizes":[],"default_left":[0,0,0,0,0,0,0],"id":42,"left_children":[1,3,5,-1,-1,-1,-1],"loss_changes":[1.2356967E1,1.0059153E1,1.4125426E1,0E0,0E0,0E0,0E0],"parents":[2147483647,0,0,1,1,2,2],"right_children":[2,4,6,-1,-1,-1,-1],"split_conditions":[-1.422E3,1.779999E-1,2.86029E3,5.2054323E-2,-1.8073088E-2,6.3138835E-2,5.655615E-3],"split_indices":[5,0,26,0,0,0,0],"split_type":[0,0,0,0,0,0,0],"sum_hessian":[8.000114E2,3.2677158E2,4.7323984E2,1.7090746E1,3.0968082E2,4.2641182E1,4.3059866E2],"tree_param":{"num_deleted":"0","num_feature":"50","num_nodes":"7","size_leaf_vector":"1"}},{"base_weights":[-2.9065006E-3,-4.4217214E-2,3.4685603E-1,-7.795085E-3,5.337861E-2,7.705723E-3,7.1394704E-2],"categories":[],"categories_nodes":[],"categories_segments":[],"categories_sizes":[],"default_left":[0,0,0,0,0,0,0],"id":43,"left_children":[1,3,5,-1,-1,-1,-1],"loss_changes":[1.1708768E1,1.4333318E1,8.203396E0,0E0,0E0,0E0,0E0],"parents":[2147483647,0,0,1,1,2,2],"right_children":[2,4,6,-1,-1,-1,-1],"split_conditions":[3.7565315E-1,1.15384616E-1,4.4055E5,-7.795085E-3,5.337861E-2,7.705723E-3,7.1394704E-2],"split_indices":[9,1,45,0,0,0,0],"split_type":[0,0,0,0,0,0,0],"sum_hessian":[8.000475E2,7.194416E2,8.0605896E1,6.8385583E2,3.5585743E1,4.994654E1,3.0659353E1],"tree_param":{"num_deleted":"0","num_feature":"50","num_nodes":"7","size_leaf_vector":"1"}},{"base_weights":[1.7149484E-2,-7.424747E-2,1.6623123E-1,-2.0500327E-2,9.001216E-3,-3.4046154E-3,3.798236E-2],"categories":[],"categories_nodes":[],"categories_segments":[],"categories_sizes":[],"default_left":[0,0,0,0,0,0,0],"id":44,"left_children":[1,3,5,-1,-1,-1,-1],"loss_changes":[1.1005732E1,1.0860991E1,1.31892E1,0E0,0E0,0E0,0E0],"parents":[2147483647,0,0,1,1,2,2],"right_children":[2,4,6,-1,-1,-1,-1],"split_conditions":[1E0,1.1584E0,1E0,-2.0500327E-2,9.001216E-3,-3.4046154E-3,3.798236E-2],"split_indices":[6,11,7,0,0,0,0],"split_type":[0,0,0,0,0,0,0],"sum_hessian":[7.981944E2,4.963865E2,3.018079E2,2.7568915E2,2.2069737E2,1.5792793E2,1.4387994E2],"tree_param":{"num_deleted":"0","num_feature":"50","num_nodes":"7","size_leaf_vector":"1"}},{"base_weights":[1.30238095E-2,-7.902339E-3,7.752536E-2,-4.7791936E-3,3.729756E-2],"categories":[],"categories_nodes":[],"categories_segments":[],"categories_sizes":[],"default_left":[0,0,0,0,0],"id":45,"left_children":[1,3,-1,-1,-1],"loss_changes":[1.2803879E1,1.2005895E1,0E0,0E0,0E0],"parents":[2147483647,0,0,1,1],"right_children":[2,4,-1,-1,-1],"split_conditions":[7.1428573E-1,-1E0,7.752536E-2,-4.7791936E-3,3.729756E-2],"split_indices":[1,2,0,0,0],"split_type":[0,0,0,0,0],"sum_hessian":[7.958038E2,7.7935565E2,1.6448156E1,7.0942926E2,6.992638E1],"tree_param":{"num_deleted":"0","num_feature":"50","num_nodes":"5","size_leaf_vector":"1"}},{"base_weights":[-3.352585E-3,3.677565E-2,-3.2610926E-1,5.6299727E-2,1.0146267E-3,-5.8555808E-2,-3.6909536E-3],"categories":[],"categories_nodes":[],"categories_segments":[],"categories_sizes":[],"default_left":[0,0,0,0,0,0,0],"id":46,"left_children":[1,3,5,-1,-1,-1,-1],"loss_changes":[1.0402318E1,9.986858E0,6.5555496E0,0E0,0E0,0E0,0E0],"parents":[2147483647,0,0,1,1,2,2],"right_children":[2,4,6,-1,-1,-1,-1],"split_conditions":[1.090486E1,-1.761E3,2.65095E4,5.6299727E-2,1.0146267E-3,-5.8555808E-2,-3.6909536E-3],"split_indices":[15,29,23,0,0,0,0],"split_type":[0,0,0,0,0,0,0],"sum_hessian":[7.935353E2,7.097256E2,8.380967E1,2.9334692E1,6.803909E2,4.1476357E1,4.233331E1],"tree_param":{"num_deleted":"0","num_feature":"50","num_nodes":"7","size_leaf_vector":"1"}},{"base_weights":[-7.1206037E-3,-3.0667605E-2,5.2296557E-2,-3.8794484E-2,4.7105207E-4],"categories":[],"categories_nodes":[],"categories_segments":[],"categories_sizes":[],"default_left":[0,0,0,0,0],"id":47,"left_children":[1,3,-1,-1,-1],"loss_changes":[1.0121382E1,9.804546E0,0E0,0E0,0E0],"parents":[2147483647,0,0,1,1],"right_children":[2,4,-1,-1,-1],"split_conditions":[1.4224E0,2E0,5.2296557E-2,-3.8794484E-2,4.7105207E-4],"split_indices":[11,32,0,0,0],"split_type":[0,0,0,0,0],"sum_hessian":[7.9945764E2,7.6996564E2,2.9491978E1,6.488414E1,7.050815E2],"tree_param":{"num_deleted":"0","num_feature":"50","num_nodes":"5","size_leaf_vector":"1"}},{"base_weights":[-1.6520552E-3,-5.7067752E-2,2.4899943E-1,-1.3708452E-2,1.3333087E-2,5.7095032E-2,-1.7383909E-3],"categories":[],"categories_nodes":[],"categories_segments":[],"categories_sizes":[],"default_left":[0,0,0,0,0,0,0],"id":48,"left_children":[1,3,5,-1,-1,-1,-1],"loss_changes":[1.1156335E1,1.0110671E1,1.2522012E1,0E0,0E0,0E0,0E0],"parents":[2147483647,0,0,1,1,2,2],"right_children":[2,4,6,-1,-1,-1,-1],"split_conditions":[3E0,2.833605E5,8.40276E3,-1.3708452E-2,1.3333087E-2,5.7095032E-2,-1.7383909E-3],"split_indices":[32,19,19,0,0,0,0],"split_type":[0,0,0,0,0,0,0],"sum_hessian":[7.930752E2,6.5264557E2,1.4042961E2,4.6051147E2,1.921341E2,6.0994705E1,7.9434906E1],"tree_param":{"num_deleted":"0","num_feature":"50","num_nodes":"7","size_leaf_vector":"1"}},{"base_weights":[-5.4786275E-3,-1.6562383E-1,8.3000734E-2,3.060849E-2,-2.6805548E-2,-7.061254E-3,1.9858204E-2],"categories":[],"categories_nodes":[],"categories_segments":[],"categories_sizes":[],"default_left":[0,0,0,0,0,0,0],"id":49,"left_children":[1,3,5,-1,-1,-1,-1],"loss_changes":[1.1377047E1,1.4213858E1,9.25625E0,0E0,0E0,0E0,0E0],"parents":[2147483647,0,0,1,1,2,2],"right_children":[2,4,6,-1,-1,-1,-1],"split_conditions":[3.105E5,4.35915E3,6E0,3.060849E-2,-2.6805548E-2,-7.061254E-3,1.9858204E-2],"split_indices":[17,26,24,0,0,0,0],"split_type":[0,0,0,0,0,0,0],"sum_hessian":[7.9307166E2,2.8068326E2,5.123884E2,4.8302795E1,2.3238048E2,2.208342E2,2.9155423E2],"tree_param":{"num_deleted":"0","num_feature":"50","num_nodes":"7","size_leaf_vector":"1"}},{"base_weights":[-1.6691431E-2,-1.2100603E-1,1.03208035E-1,5.1539708E-2,-1.5452606E-2,5.808457E-3,7.798278E-2],"categories":[],"categories_nodes":[],"categories_segments":[],"categories_sizes":[],"default_left":[0,0,0,0,0,0,0],"id":50,"left_children":[1,3,5,-1,-1,-1,-1],"loss_changes":[1.0008263E1,9.518602E0,1.1151464E1,0E0,0E0,0E0,0E0],"parents":[2147483647,0,0,1,1,2,2],"right_children":[2,4,6,-1,-1,-1,-1],"split_conditions":[-7.12E2,1.64184E-1,1.15384616E-1,5.1539708E-2,-1.5452606E-2,5.808457E-3,7.798278E-2],"split_indices":[21,0,1,0,0,0,0],"split_type":[0,0,0,0,0,0,0],"sum_hessian":[7.9020337E2,4.225401E2,3.676633E2,1.754555E1,4.0499454E2,3.4976675E2,1.7896559E1],"tree_param":{"num_deleted":"0","num_feature":"50","num_nodes":"7","size_leaf_vector":"1"}},{"base_weights":[-8.149788E-3,-2.2652447E-1,4.841562E-2,-3.6361877E-2,1.3334262E-2,-5.9483848E-3,1.7083667E-2],"categories":[],"categories_nodes":[],"categories_segments":[],"categories_sizes":[],"default_left":[0,0,0,0,0,0,0],"id":51,"left_children":[1,3,5,-1,-1,-1,-1],"loss_changes":[9.816013E0,8.30677E0,8.395873E0,0E0,0E0,0E0,0E0],"parents":[2147483647,0,0,1,1,2,2],"right_children":[2,4,6,-1,-1,-1,-1],"split_conditions":[2E0,6E0,2.53845E4,-3.6361877E-2,1.3334262E-2,-5.9483848E-3,1.7083667E-2],"split_indices":[4,43,23,0,0,0,0],"split_type":[0,0,0,0,0,0,0],"sum_hessian":[7.852216E2,1.5845847E2,6.267631E2,1.14707565E2,4.3750904E1,3.345064E2,2.9225674E2],"tree_param":{"num_deleted":"0","num_feature":"50","num_nodes":"7","size_leaf_vector":"1"}},{"base_weights":[5.1549086E-3,-1.3434565E-1,1.0651514E-1,-3.1966653E-2,-4.797847E-3,4.5752E-3,4.490514E-2],"categories":[],"categories_nodes":[],"categories_segments":[],"categories_sizes":[],"default_left":[0,0,0,0,0,0,0],"id":52,"left_children":[1,3,5,-1,-1,-1,-1],"loss_changes":[1.1412367E1,5.360964E0,9.623783E0,0E0,0E0,0E0,0E0],"parents":[2147483647,0,0,1,1,2,2],"right_children":[2,4,6,-1,-1,-1,-1],"split_conditions":[6E0,1E0,1.3167952E0,-3.1966653E-2,-4.797847E-3,4.5752E-3,4.490514E-2],"split_indices":[24,7,11,0,0,0,0],"split_type":[0,0,0,0,0,0,0],"sum_hessian":[7.970488E2,3.3473328E2,4.6231552E2,1.0211518E2,2.326181E2,3.974746E2,6.484091E1],"tree_param":{"num_deleted":"0","num_feature":"50","num_nodes":"7","size_leaf_vector":"1"}},{"base_weights":[1.0062054E-2,-8.5038945E-2,1.5504046E-1,3.5310816E-2,-1.2140203E-2,2.240071E-2,-1.8113596E-2],"categories":[],"categories_nodes":[],"categories_segments":[],"categories_sizes":[],"default_left":[0,0,0,0,0,0,0],"id":53,"left_children":[1,3,5,-1,-1,-1,-1],"loss_changes":[1.1100556E1,7.965926E0,7.5942593E0,0E0,0E0,0E0,0E0],"parents":[2147483647,0,0,1,1,2,2],"right_children":[2,4,6,-1,-1,-1,-1],"split_conditions":[-6.17E2,-1.761E3,6.8391514E0,3.5310816E-2,-1.2140203E-2,2.240071E-2,-1.8113596E-2],"split_indices":[21,29,15,0,0,0,0],"split_type":[0,0,0,0,0,0,0],"sum_hessian":[7.953309E2,4.8153024E2,3.1380063E2,3.356346E1,4.479668E2,2.617673E2,5.2033302E1],"tree_param":{"num_deleted":"0","num_feature":"50","num_nodes":"7","size_leaf_vector":"1"}},{"base_weights":[2.3997802E-2,-6.843255E-2,1.6849908E-1,-1.17979E-2,2.8536929E-2,-4.2452877E-3,3.8586073E-2],"categories":[],"categories_nodes":[],"categories_segments":[],"categories_sizes":[],"default_left":[0,0,0,0,0,0,0],"id":54,"left_children":[1,3,5,-1,-1,-1,-1],"loss_changes":[1.0682356E1,8.735229E0,1.4377584E1,0E0,0E0,0E0,0E0],"parents":[2147483647,0,0,1,1,2,2],"right_children":[2,4,6,-1,-1,-1,-1],"split_conditions":[1E0,2E0,1E0,-1.17979E-2,2.8536929E-2,-4.2452877E-3,3.8586073E-2],"split_indices":[6,41,7,0,0,0,0],"split_type":[0,0,0,0,0,0,0],"sum_hessian":[7.904822E2,4.837093E2,3.067729E2,4.2721478E2,5.649451E1,1.577237E2,1.490492E2],"tree_param":{"num_deleted":"0","num_feature":"50","num_nodes":"7","size_leaf_vector":"1"}},{"base_weights":[-3.949885E-3,4.5753446E-1,-2.813988E-2,7.852981E-3,8.025422E-2,-4.6130596E-3,5.9588976E-2],"categories":[],"categories_nodes":[],"categories_segments":[],"categories_sizes":[],"default_left":[0,0,0,0,0,0,0],"id":55,"left_children":[1,3,5,-1,-1,-1,-1],"loss_changes":[8.876497E0,4.8638134E0,8.611125E0,0E0,0E0,0E0,0E0],"parents":[2147483647,0,0,1,1,2,2],"right_children":[2,4,6,-1,-1,-1,-1],"split_conditions":[-1.761E3,1.942E-1,7.1428573E-1,7.852981E-3,8.025422E-2,-4.6130596E-3,5.9588976E-2],"split_indices":[29,27,1,0,0,0,0],"split_type":[0,0,0,0,0,0,0],"sum_hessian":[7.8438306E2,3.4606525E1,7.4977655E2,1.9415697E1,1.5190826E1,7.332669E2,1.6509634E1],"tree_param":{"num_deleted":"0","num_feature":"50","num_nodes":"7","size_leaf_vector":"1"}},{"base_weights":[-1.6788779E-3,3.3606675E-1,-3.5331074E-2,3.1559584E-3,7.1617804E-2,-1.2307181E-2,9.706014E-3],"categories":[],"categories_nodes":[],"categories_segments":[],"categories_sizes":[],"default_left":[0,0,0,0,0,0,0],"id":56,"left_children":[1,3,5,-1,-1,-1,-1],"loss_changes":[9.158023E0,8.337729E0,8.568667E0,0E0,0E0,0E0,0E0],"parents":[2147483647,0,0,1,1,2,2],"right_children":[2,4,6,-1,-1,-1,-1],"split_conditions":[1.8999612E-1,4.8665836E4,-7.78E2,3.1559584E-3,7.1617804E-2,-1.2307181E-2,9.706014E-3],"split_indices":[0,19,36,0,0,0,0],"split_type":[0,0,0,0,0,0,0],"sum_hessian":[7.955234E2,6.801073E1,7.2751263E2,4.076723E1,2.7243498E1,4.3775055E2,2.897621E2],"tree_param":{"num_deleted":"0","num_feature":"50","num_nodes":"7","size_leaf_vector":"1"}},{"base_weights":[3.986537E-2,3.7963027E-1,-5.2232444E-3,8.869334E-3,5.562913E-2,-4.1941423E-2,2.9166113E-3],"categories":[],"categories_nodes":[],"categories_segments":[],"categories_sizes":[],"default_left":[0,0,0,0,0,0,0],"id":57,"left_children":[1,3,5,-1,-1,-1,-1],"loss_changes":[1.20173645E1,4.476513E0,9.987696E0,0E0,0E0,0E0,0E0],"parents":[2147483647,0,0,1,1,2,2],"right_children":[2,4,6,-1,-1,-1,-1],"split_conditions":[1E0,-4.12E2,1.485E5,8.869334E-3,5.562913E-2,-4.1941423E-2,2.9166113E-3],"split_indices":[35,33,17,0,0,0,0],"split_type":[0,0,0,0,0,0,0],"sum_hessian":[7.788001E2,8.68962E1,6.919039E2,3.566727E1,5.122893E1,4.8751587E1,6.431523E2],"tree_param":{"num_deleted":"0","num_feature":"50","num_nodes":"7","size_leaf_vector":"1"}},{"base_weights":[-2.7145336E-3,-3.6422077E-1,3.159665E-2,-5.878788E-2,-1.3226959E-2,1.747956E-2,-4.270217E-3],"categories":[],"categories_nodes":[],"categories_segments":[],"categories_sizes":[],"default_left":[0,0,0,0,0,0,0],"id":58,"left_children":[1,3,5,-1,-1,-1,-1],"loss_changes":[9.824994E0,3.1731234E0,7.7382283E0,0E0,0E0,0E0,0E0],"parents":[2147483647,0,0,1,1,2,2],"right_children":[2,4,6,-1,-1,-1,-1],"split_conditions":[2E0,1.36E-1,3.405923E-1,-5.878788E-2,-1.3226959E-2,1.747956E-2,-4.270217E-3],"split_indices":[32,27,0,0,0,0,0],"split_type":[0,0,0,0,0,0,0],"sum_hessian":[7.8246246E2,6.3659817E1,7.188026E2,2.8503227E1,3.515659E1,2.432379E2,4.7556473E2],"tree_param":{"num_deleted":"0","num_feature":"50","num_nodes":"7","size_leaf_vector":"1"}},{"base_weights":[-2.3423366E-3,-1.1170022E-1,1.13935195E-1,-2.0944456E-2,3.2237382E-3,-1.0656813E-2,2.1758646E-2],"categories":[],"categories_nodes":[],"categories_segments":[],"categories_sizes":[],"default_left":[0,0,0,0,0,0,0],"id":59,"left_children":[1,3,5,-1,-1,-1,-1],"loss_changes":[1.0239883E1,5.871528E0,9.037424E0,0E0,0E0,0E0,0E0],"parents":[2147483647,0,0,1,1,2,2],"right_children":[2,4,6,-1,-1,-1,-1],"split_conditions":[1.1386E0,1E0,1E0,-2.0944456E-2,3.2237382E-3,-1.0656813E-2,2.1758646E-2],"split_indices":[11,6,7,0,0,0,0],"split_type":[0,0,0,0,0,0,0],"sum_hessian":[7.9527985E2,4.099359E2,3.853439E2,2.4278876E2,1.6714717E2,1.231721E2,2.621718E2],"tree_param":{"num_deleted":"0","num_feature":"50","num_nodes":"7","size_leaf_vector":"1"}},{"base_weights":[6.433374E-4,3.9673805E-1,-2.8366331E-2,2.5912987E-3,8.259576E-2,-5.27297E-3,4.8073757E-2],"categories":[],"categories_nodes":[],"categories_segments":[],"categories_sizes":[],"default_left":[0,0,0,0,0,0,0],"id":60,"left_children":[1,3,5,-1,-1,-1,-1],"loss_changes":[9.1701565E0,8.561132E0,9.35124E0,0E0,0E0,0E0,0E0],"parents":[2147483647,0,0,1,1,2,2],"right_children":[2,4,6,-1,-1,-1,-1],"split_conditions":[1.64184E-1,2.5011E4,1.4224E0,2.5912987E-3,8.259576E-2,-5.27297E-3,4.8073757E-2],"split_indices":[0,19,11,0,0,0,0],"split_type":[0,0,0,0,0,0,0],"sum_hessian":[7.881618E2,4.9460022E1,7.387018E2,2.937945E1,2.0080572E1,7.092428E2,2.9458963E1],"tree_param":{"num_deleted":"0","num_feature":"50","num_nodes":"7","size_leaf_vector":"1"}},{"base_weights":[-1.8707747E-2,-1.5938693E-1,5.4852888E-2,-2.2024399E-2,2.497503E-2,4.6285163E-4,5.8861256E-2],"categories":[],"categories_nodes":[],"categories_segments":[],"categories_sizes":[],"default_left":[0,0,0,0,0,0,0],"id":61,"left_children":[1,3,5,-1,-1,-1,-1],"loss_changes":[8.282572E0,7.1132927E0,1.4100725E1,0E0,0E0,0E0,0E0],"parents":[2147483647,0,0,1,1,2,2],"right_children":[2,4,6,-1,-1,-1,-1],"split_conditions":[1.35275E-1,1.4E1,9.254E-1,-2.2024399E-2,2.497503E-2,4.6285163E-4,5.8861256E-2],"split_indices":[27,28,14,0,0,0,0],"split_type":[0,0,0,0,0,0,0],"sum_hessian":[7.91144E2,2.6964136E2,5.215026E2,2.3673648E2,3.290489E1,4.8126144E2,4.0241165E1],"tree_param":{"num_deleted":"0","num_feature":"50","num_nodes":"7","size_leaf_vector":"1"}},{"base_weights":[2.0340107E-2,-1.5265258E-1,7.471562E-2,3.420939E-3,-4.3173917E-2,1.8457923E-2,-9.368294E-3],"categories":[],"categories_nodes":[],"categories_segments":[],"categories_sizes":[],"default_left":[0,0,0,0,0,0,0],"id":62,"left_children":[1,3,5,-1,-1,-1,-1],"loss_changes":[7.500998E0,1.00293045E1,1.1288016E1,0E0,0E0,0E0,0E0],"parents":[2147483647,0,0,1,1,2,2],"right_children":[2,4,6,-1,-1,-1,-1],"split_conditions":[3E0,4.789995E-1,4.467625E1,3.420939E-3,-4.3173917E-2,1.8457923E-2,-9.368294E-3],"split_indices":[4,0,16,0,0,0,0],"split_type":[0,0,0,0,0,0,0],"sum_hessian":[7.86359E2,1.8589798E2,6.00461E2,1.13974E2,7.192398E1,3.6309595E2,2.3736507E2],"tree_param":{"num_deleted":"0","num_feature":"50","num_nodes":"7","size_leaf_vector":"1"}},{"base_weights":[-1.2026843E-2,2.978303E-1,-5.4997604E-2,4.355635E-2,-1.240169E-2,-1.1378046E-2,1.3605324E-2],"categories":[],"categories_nodes":[],"categories_segments":[],"categories_sizes":[],"default_left":[0,0,0,0,0,0,0],"id":63,"left_children":[1,3,5,-1,-1,-1,-1],"loss_changes":[1.05903425E1,5.900172E0,7.908786E0,0E0,0E0,0E0,0E0],"parents":[2147483647,0,0,1,1,2,2],"right_children":[2,4,6,-1,-1,-1,-1],"split_conditions":[1E0,-1.0639E4,3E0,4.355635E-2,-1.240169E-2,-1.1378046E-2,1.3605324E-2],"split_indices":[35,46,35,0,0,0,0],"split_type":[0,0,0,0,0,0,0],"sum_hessian":[7.842304E2,9.189942E1,6.92331E2,6.915705E1,2.2742367E1,5.309803E2,1.613507E2],"tree_param":{"num_deleted":"0","num_feature":"50","num_nodes":"7","size_leaf_vector":"1"}},{"base_weights":[-1.0885164E-2,-1.8042621E-1,4.5020808E-2,-3.491876E-2,-1.8297028E-3,-5.5790826E-4,4.1991454E-2],"categories":[],"categories_nodes":[],"categories_segments":[],"categories_sizes":[],"default_left":[0,0,0,0,0,0,0],"id":64,"left_children":[1,3,5,-1,-1,-1,-1],"loss_changes":[7.551216E0,5.371749E0,1.1391559E1,0E0,0E0,0E0,0E0],"parents":[2147483647,0,0,1,1,2,2],"right_children":[2,4,6,-1,-1,-1,-1],"split_conditions":[4E0,3E0,1.71E6,-3.491876E-2,-1.8297028E-3,-5.5790826E-4,4.1991454E-2],"split_indices":[4,22,45,0,0,0,0],"split_type":[0,0,0,0,0,0,0],"sum_hessian":[7.8739484E2,1.9249522E2,5.9489966E2,9.149189E1,1.01003334E2,5.284938E2,6.640589E1],"tree_param":{"num_deleted":"0","num_feature":"50","num_nodes":"7","size_leaf_vector":"1"}},{"base_weights":[7.8193955E-3,-3.0047917E-1,4.462242E-2,-4.885E-2,2.492346E-3,6.9929846E-3,-3.542743E-2],"categories":[],"categories_nodes":[],"categories_segments":[],"categories_sizes":[],"default_left":[0,0,0,0,0,0,0],"id":65,"left_children":[1,3,5,-1,-1,-1,-1],"loss_changes":[9.089275E0,5.2887006E0,7.339024E0,0E0,0E0,0E0,0E0],"parents":[2147483647,0,0,1,1,2,2],"right_children":[2,4,6,-1,-1,-1,-1],"split_conditions":[-3.983E3,1.5876E5,4E0,-4.885E-2,2.492346E-3,6.9929846E-3,-3.542743E-2],"split_indices":[5,25,20,0,0,0,0],"split_type":[0,0,0,0,0,0,0],"sum_hessian":[7.901684E2,8.044647E1,7.097219E2,4.9397835E1,3.1048635E1,6.7125836E2,3.846356E1],"tree_param":{"num_deleted":"0","num_feature":"50","num_nodes":"7","size_leaf_vector":"1"}},{"base_weights":[2.0111954E-2,-1.0737648E-1,8.7608725E-2,-1.7448766E-2,4.1962203E-2,6.095295E-2,4.373959E-3],"categories":[],"categories_nodes":[],"categories_segments":[],"categories_sizes":[],"default_left":[0,0,0,0,0,0,0],"id":66,"left_children":[1,3,5,-1,-1,-1,-1],"loss_changes":[6.835769E0,1.0104292E1,1.1740228E1,0E0,0E0,0E0,0E0],"parents":[2147483647,0,0,1,1,2,2],"right_children":[2,4,6,-1,-1,-1,-1],"split_conditions":[-1.667E3,5.705964E-1,1.9737E4,-1.7448766E-2,4.1962203E-2,6.095295E-2,4.373959E-3],"split_indices":[5,9,25,0,0,0,0],"split_type":[0,0,0,0,0,0,0],"sum_hessian":[7.839237E2,2.7034317E2,5.135805E2,2.4277168E2,2.7571503E1,3.482217E1,4.7875836E2],"tree_param":{"num_deleted":"0","num_feature":"50","num_nodes":"7","size_leaf_vector":"1"}},{"base_weights":[-1.7547818E-2,-7.669034E-2,2.2947313E-1,6.8261917E-3,-2.046855E-2,3.1663995E-2,-3.322743E-2],"categories":[],"categories_nodes":[],"categories_segments":[],"categories_sizes":[],"default_left":[0,0,0,0,0,0,0],"id":67,"left_children":[1,3,5,-1,-1,-1,-1],"loss_changes":[1.1602811E1,1.193777E1,8.042634E0,0E0,0E0,0E0,0E0],"parents":[2147483647,0,0,1,1,2,2],"right_children":[2,4,6,-1,-1,-1,-1],"split_conditions":[1.215E6,8.224386E3,4.96728E6,6.8261917E-3,-2.046855E-2,3.1663995E-2,-3.322743E-2],"split_indices":[45,26,45,0,0,0,0],"split_type":[0,0,0,0,0,0,0],"sum_hessian":[7.831765E2,6.346696E2,1.4850687E2,2.9871432E2,3.359553E2,1.3044696E2,1.805991E1],"tree_param":{"num_deleted":"0","num_feature":"50","num_nodes":"7","size_leaf_vector":"1"}},{"base_weights":[1.996307E-2,-7.802637E-2,1.0145077E-1,-1.1999238E-2,5.5713475E-2,2.1461975E-2,-5.497599E-3],"categories":[],"categories_nodes":[],"categories_segments":[],"categories_sizes":[],"default_left":[0,0,0,0,0,0,0],"id":68,"left_children":[1,3,5,-1,-1,-1,-1],"loss_changes":[6.3485713E0,9.971696E0,7.7340264E0,0E0,0E0,0E0,0E0],"parents":[2147483647,0,0,1,1,2,2],"right_children":[2,4,6,-1,-1,-1,-1],"split_conditions":[1.5733333E-1,-3.4E1,4.266119E1,-1.1999238E-2,5.5713475E-2,2.1461975E-2,-5.497599E-3],"split_indices":[27,33,16,0,0,0,0],"split_type":[0,0,0,0,0,0,0],"sum_hessian":[7.8511206E2,3.5655954E2,4.2855255E2,3.3826526E2,1.829426E1,2.4757855E2,1.80974E2],"tree_param":{"num_deleted":"0","num_feature":"50","num_nodes":"7","size_leaf_vector":"1"}},{"base_weights":[-3.1553083E-3,-9.385954E-2,8.694246E-2,-1.5400953E-2,1.6090434E-2,-2.8128603E-3,3.6520045E-2],"categories":[],"categories_nodes":[],"categories_segments":[],"categories_sizes":[],"default_left":[0,0,0,0,0,0,0],"id":69,"left_children":[1,3,5,-1,-1,-1,-1],"loss_changes":[6.478488E0,6.176257E0,1.2788428E1,0E0,0E0,0E0,0E0],"parents":[2147483647,0,0,1,1,2,2],"right_children":[2,4,6,-1,-1,-1,-1],"split_conditions":[4E0,3E0,-7.78E2,-1.5400953E-2,1.6090434E-2,-2.8128603E-3,3.6520045E-2],"split_indices":[43,32,36,0,0,0,0],"split_type":[0,0,0,0,0,0,0],"sum_hessian":[7.8274963E2,3.89958E2,3.9279166E2,3.1707394E2,7.288405E1,2.8105746E2,1.1173419E2],"tree_param":{"num_deleted":"0","num_feature":"50","num_nodes":"7","size_leaf_vector":"1"}},{"base_weights":[5.162728E-3,-1.7757725E-2,4.468735E-1,-4.3362845E-3,4.0652268E-2,7.095653E-2,1.0495531E-2],"categories":[],"categories_nodes":[],"categories_segments":[],"categories_sizes":[],"default_left":[0,0,0,0,0,0,0],"id":70,"left_children":[1,3,5,-1,-1,-1,-1],"loss_changes":[8.000442E0,8.26126E0,3.1287928E0,0E0,0E0,0E0,0E0],"parents":[2147483647,0,0,1,1,2,2],"right_children":[2,4,6,-1,-1,-1,-1],"split_conditions":[1.4E1,9.244294E-1,-4.683E3,-4.3362845E-3,4.0652268E-2,7.095653E-2,1.0495531E-2],"split_indices":[43,9,44,0,0,0,0],"split_type":[0,0,0,0,0,0,0],"sum_hessian":[7.8130963E2,7.473295E2,3.398008E1,7.09029E2,3.830058E1,1.6176E1,1.780408E1],"tree_param":{"num_deleted":"0","num_feature":"50","num_nodes":"7","size_leaf_vector":"1"}},{"base_weights":[2.383008E-2,-1.1389081E-1,9.385165E-2,-1.7616706E-2,2.8294114E-2,5.4321573E-3,4.5782037E-2],"categories":[],"categories_nodes":[],"categories_segments":[],"categories_sizes":[],"default_left":[0,0,0,0,0,0,0],"id":71,"left_children":[1,3,5,-1,-1,-1,-1],"loss_changes":[7.630905E0,6.850319E0,7.4098606E0,0E0,0E0,0E0,0E0],"parents":[2147483647,0,0,1,1,2,2],"right_children":[2,4,6,-1,-1,-1,-1],"split_conditions":[1.3445714E-1,1.4E1,1.396E0,-1.7616706E-2,2.8294114E-2,5.4321573E-3,4.5782037E-2],"split_indices":[27,28,11,0,0,0,0],"split_type":[0,0,0,0,0,0,0],"sum_hessian":[7.8076385E2,2.62108E2,5.186558E2,2.2895726E2,3.3150745E1,4.730273E2,4.562852E1],"tree_param":{"num_deleted":"0","num_feature":"50","num_nodes":"7","size_leaf_vector":"1"}},{"base_weights":[-1.3801623E-2,-6.776561E-2,1.4956756E-1,-3.0026948E-2,-8.797357E-4,2.177488E-2,-3.8947742E-2],"categories":[],"categories_nodes":[],"categories_segments":[],"categories_sizes":[],"default_left":[0,0,0,0,0,0,0],"id":72,"left_children":[1,3,5,-1,-1,-1,-1],"loss_changes":[7.088009E0,8.260684E0,7.765875E0,0E0,0E0,0E0,0E0],"parents":[2147483647,0,0,1,1,2,2],"right_children":[2,4,6,-1,-1,-1,-1],"split_conditions":[7E0,2E0,3.9E1,-3.0026948E-2,-8.797357E-4,2.177488E-2,-3.8947742E-2],"split_indices":[43,4,38,0,0,0,0],"split_type":[0,0,0,0,0,0,0],"sum_hessian":[7.932407E2,5.9847797E2,1.9476279E2,1.169398E2,4.8153815E2,1.7553983E2,1.9222965E1],"tree_param":{"num_deleted":"0","num_feature":"50","num_nodes":"7","size_leaf_vector":"1"}},{"base_weights":[-2.3478135E-2,2.9091714E-2,-2.4715653E-1,-2.285639E-3,2.6193423E-2,-4.9678166E-3,-4.1103177E-2],"categories":[],"categories_nodes":[],"categories_segments":[],"categories_sizes":[],"default_left":[0,0,0,0,0,0,0],"id":73,"left_children":[1,3,5,-1,-1,-1,-1],"loss_changes":[9.262503E0,7.768889E0,4.7471867E0,0E0,0E0,0E0,0E0],"parents":[2147483647,0,0,1,1,2,2],"right_children":[2,4,6,-1,-1,-1,-1],"split_conditions":[-1.0639E4,3E0,7.0927017E3,-2.285639E-3,2.6193423E-2,-4.9678166E-3,-4.1103177E-2],"split_indices":[46,35,26,0,0,0,0],"split_type":[0,0,0,0,0,0,0],"sum_hessian":[7.7965485E2,6.34809E2,1.4484583E2,5.227014E2,1.12107605E2,6.8643036E1,7.620278E1],"tree_param":{"num_deleted":"0","num_feature":"50","num_nodes":"7","size_leaf_vector":"1"}},{"base_weights":[-7.855473E-3,-1.4403088E-1,5.7733607E-2,-3.1313352E-2,1.2083606E-2,-3.5734125E-3,2.8165707E-2],"categories":[],"categories_nodes":[],"categories_segments":[],"categories_sizes":[],"default_left":[0,0,0,0,0,0,0],"id":74,"left_children":[1,3,5,-1,-1,-1,-1],"loss_changes":[7.1295657E0,1.1807943E1,1.1335092E1,0E0,0E0,0E0,0E0],"parents":[2147483647,0,0,1,1,2,2],"right_children":[2,4,6,-1,-1,-1,-1],"split_conditions":[1E0,1.4E1,1E0,-3.1313352E-2,1.2083606E-2,-3.5734125E-3,2.8165707E-2],"split_indices":[7,28,6,0,0,0,0],"split_type":[0,0,0,0,0,0,0],"sum_hessian":[7.8858374E2,2.5440686E2,5.341769E2,1.5471738E2,9.968948E1,3.798331E2,1.5434377E2],"tree_param":{"num_deleted":"0","num_feature":"50","num_nodes":"7","size_leaf_vector":"1"}},{"base_weights":[-1.15545355E-2,3.8402285E-2,-2.0792928E-1,-9.681261E-3,1.402698E-2,-3.1248948E-2,9.33926E-3],"categories":[],"categories_nodes":[],"categories_segments":[],"categories_sizes":[],"default_left":[0,0,0,0,0,0,0],"id":75,"left_children":[1,3,5,-1,-1,-1,-1],"loss_changes":[7.768767E0,8.776903E0,5.204394E0,0E0,0E0,0E0,0E0],"parents":[2147483647,0,0,1,1,2,2],"right_children":[2,4,6,-1,-1,-1,-1],"split_conditions":[-1.0813E4,6E0,4.323192E-1,-9.681261E-3,1.402698E-2,-3.1248948E-2,9.33926E-3],"split_indices":[46,24,0,0,0,0,0],"split_type":[0,0,0,0,0,0,0],"sum_hessian":[7.828327E2,6.2727826E2,1.5555444E2,2.696301E2,3.5764816E2,1.1534415E2,4.0210304E1],"tree_param":{"num_deleted":"0","num_feature":"50","num_nodes":"7","size_leaf_vector":"1"}},{"base_weights":[7.095652E-3,3.123097E-2,-3.360321E-1,-2.4793705E-3,1.9948753E-2,1.0741856E-2,-5.3466827E-2],"categories":[],"categories_nodes":[],"categories_segments":[],"categories_sizes":[],"default_left":[0,0,0,0,0,0,0],"id":76,"left_children":[1,3,5,-1,-1,-1,-1],"loss_changes":[6.545153E0,6.9725585E0,4.8629317E0,0E0,0E0,0E0,0E0],"parents":[2147483647,0,0,1,1,2,2],"right_children":[2,4,6,-1,-1,-1,-1],"split_conditions":[-3.33E2,2.3464864E-1,-5.31E2,-2.4793705E-3,1.9948753E-2,1.0741856E-2,-5.3466827E-2],"split_indices":[44,27,33,0,0,0,0],"split_type":[0,0,0,0,0,0,0],"sum_hessian":[7.7899835E2,7.320514E2,4.694697E1,5.5238574E2,1.7966562E2,1.52338505E1,3.1713121E1],"tree_param":{"num_deleted":"0","num_feature":"50","num_nodes":"7","size_leaf_vector":"1"}},{"base_weights":[2.1430375E-2,-1.0938335E-2,4.1221976E-1,-7.040344E-3,1.463265E-2,2.0487157E-3,6.711939E-2],"categories":[],"categories_nodes":[],"categories_segments":[],"categories_sizes":[],"default_left":[0,0,0,0,0,0,0],"id":77,"left_children":[1,3,5,-1,-1,-1,-1],"loss_changes":[1.0035946E1,6.933773E0,6.0873823E0,0E0,0E0,0E0,0E0],"parents":[2147483647,0,0,1,1,2,2],"right_children":[2,4,6,-1,-1,-1,-1],"split_conditions":[9.3164444E-1,2E0,2.90688E0,-7.040344E-3,1.463265E-2,2.0487157E-3,6.711939E-2],"split_indices":[14,35,22,0,0,0,0],"split_type":[0,0,0,0,0,0,0],"sum_hessian":[7.86614E2,7.309317E2,5.5682323E1,5.323868E2,1.9854489E2,2.430832E1,3.1374002E1],"tree_param":{"num_deleted":"0","num_feature":"50","num_nodes":"7","size_leaf_vector":"1"}},{"base_weights":[7.2290776E-3,-1.7972361E-2,4.028149E-1,5.2823704E-3,-1.8600551E-2,-2.1924412E-2,7.705835E-2],"categories":[],"categories_nodes":[],"categories_segments":[],"categories_sizes":[],"default_left":[0,0,0,0,0,0,0],"id":78,"left_children":[1,3,5,-1,-1,-1,-1],"loss_changes":[7.8789034E0,8.90403E0,1.1672348E1,0E0,0E0,0E0,0E0],"parents":[2147483647,0,0,1,1,2,2],"right_children":[2,4,6,-1,-1,-1,-1],"split_conditions":[1.15384616E-1,4.81807E1,-8.705E2,5.2823704E-3,-1.8600551E-2,-2.1924412E-2,7.705835E-2],"split_indices":[1,16,21,0,0,0,0],"split_type":[0,0,0,0,0,0,0],"sum_hessian":[7.816832E2,7.393543E2,4.2328934E1,5.2259973E2,2.1675458E2,1.6477491E1,2.585144E1],"tree_param":{"num_deleted":"0","num_feature":"50","num_nodes":"7","size_leaf_vector":"1"}},{"base_weights":[-2.1349028E-2,-9.665468E-2,9.437177E-2,-1.308417E-2,3.2870676E-2,-4.1859668E-2,1.3660858E-2],"categories":[],"categories_nodes":[],"categories_segments":[],"categories_sizes":[],"default_left":[0,0,0,0,0,0,0],"id":79,"left_children":[1,3,5,-1,-1,-1,-1],"loss_changes":[6.9628654E0,7.2434573E0,7.1204376E0,0E0,0E0,0E0,0E0],"parents":[2147483647,0,0,1,1,2,2],"right_children":[2,4,6,-1,-1,-1,-1],"split_conditions":[1E0,5.263158E-2,1.0466666E0,-1.308417E-2,3.2870676E-2,-4.1859668E-2,1.3660858E-2],"split_indices":[6,1,22,0,0,0,0],"split_type":[0,0,0,0,0,0,0],"sum_hessian":[7.887705E2,4.7832373E2,3.1044678E2,4.459444E2,3.237931E1,2.0227621E1,2.9021915E2],"tree_param":{"num_deleted":"0","num_feature":"50","num_nodes":"7","size_leaf_vector":"1"}},{"base_weights":[-2.7380856E-3,1.9225387E-2,-3.4101272E-1,2.6860896E-2,-1.4952061E-3,-1.1902479E-2,-5.1412385E-2],"categories":[],"categories_nodes":[],"categories_segments":[],"categories_sizes":[],"default_left":[0,0,0,0,0,0,0],"id":80,"left_children":[1,3,5,-1,-1,-1,-1],"loss_changes":[5.884468E0,6.364158E0,1.5496264E0,0E0,0E0,0E0,0E0],"parents":[2147483647,0,0,1,1,2,2],"right_children":[2,4,6,-1,-1,-1,-1],"split_conditions":[-3.33E2,1E0,-6.33E2,2.6860896E-2,-1.4952061E-3,-1.1902479E-2,-5.1412385E-2],"split_indices":[44,35,21,0,0,0,0],"split_type":[0,0,0,0,0,0,0],"sum_hessian":[7.82609E2,7.3932214E2,4.3286827E1,8.4976364E1,6.5434576E2,2.2662952E1,2.0623875E1],"tree_param":{"num_deleted":"0","num_feature":"50","num_nodes":"7","size_leaf_vector":"1"}},{"base_weights":[-1.59139E-2,-1.6012083E-1,5.4051656E-2,-2.7277533E-2,5.0064144E-3,-4.5709964E-3,2.1805326E-2],"categories":[],"categories_nodes":[],"categories_segments":[],"categories_sizes":[],"default_left":[0,0,0,0,0,0,0],"id":81,"left_children":[1,3,5,-1,-1,-1,-1],"loss_changes":[7.969927E0,6.1751757E0,8.765726E0,0E0,0E0,0E0,0E0],"parents":[2147483647,0,0,1,1,2,2],"right_children":[2,4,6,-1,-1,-1,-1],"split_conditions":[1E0,1.5E1,4.095E5,-2.7277533E-2,5.0064144E-3,-4.5709964E-3,2.1805326E-2],"split_indices":[7,28,45,0,0,0,0],"split_type":[0,0,0,0,0,0,0],"sum_hessian":[7.8063257E2,2.5291118E2,5.277214E2,1.6368872E2,8.922246E1,3.303668E2,1.9735458E2],"tree_param":{"num_deleted":"0","num_feature":"50","num_nodes":"7","size_leaf_vector":"1"}},{"base_weights":[-1.3262464E-2,-3.195716E-2,4.0507134E-2,-5.6428956E-3,3.20018E-2],"categories":[],"categories_nodes":[],"categories_segments":[],"categories_sizes":[],"default_left":[0,0,0,0,0],"id":82,"left_children":[1,3,-1,-1,-1],"loss_changes":[6.216395E0,6.6156974E0,0E0,0E0,0E0],"parents":[2147483647,0,0,1,1],"right_children":[2,4,-1,-1,-1],"split_conditions":[5E0,9.4999E-1,4.0507134E-2,-5.6428956E-3,3.20018E-2],"split_indices":[30,14,0,0,0],"split_type":[0,0,0,0,0],"sum_hessian":[7.815958E2,7.5258215E2,2.90137E1,7.075843E2,4.499785E1],"tree_param":{"num_deleted":"0","num_feature":"50","num_nodes":"5","size_leaf_vector":"1"}},{"base_weights":[-5.977514E-3,-4.328855E-2,2.1552539E-1,2.6627658E-2,-8.626579E-3,-9.066192E-3,3.9050106E-2],"categories":[],"categories_nodes":[],"categories_segments":[],"categories_sizes":[],"default_left":[0,0,0,0,0,0,0],"id":83,"left_children":[1,3,5,-1,-1,-1,-1],"loss_changes":[6.568788E0,9.156026E0,6.3170195E0,0E0,0E0,0E0,0E0],"parents":[2147483647,0,0,1,1,2,2],"right_children":[2,4,6,-1,-1,-1,-1],"split_conditions":[4E0,1E0,1.17E5,2.6627658E-2,-8.626579E-3,-9.066192E-3,3.9050106E-2],"split_indices":[39,35,37,0,0,0,0],"split_type":[0,0,0,0,0,0,0],"sum_hessian":[7.84175E2,6.7456995E2,1.09605034E2,7.906756E1,5.955024E2,4.0734184E1,6.887085E1],"tree_param":{"num_deleted":"0","num_feature":"50","num_nodes":"7","size_leaf_vector":"1"}},{"base_weights":[6.342268E-3,2.3897173E-2,-5.519658E-2,-1.6405378E-3,3.3850245E-2],"categories":[],"categories_nodes":[],"categories_segments":[],"categories_sizes":[],"default_left":[0,0,0,0,0],"id":84,"left_children":[1,3,-1,-1,-1],"loss_changes":[7.7140718E0,9.681115E0,0E0,0E0,0E0],"parents":[2147483647,0,0,1,1],"right_children":[2,4,-1,-1,-1],"split_conditions":[3.0856715E4,2.8974938E5,-5.519658E-2,-1.6405378E-3,3.3850245E-2],"split_indices":[26,25,0,0,0],"split_type":[0,0,0,0,0],"sum_hessian":[7.753372E2,7.563415E2,1.8995693E1,6.746541E2,8.168739E1],"tree_param":{"num_deleted":"0","num_feature":"50","num_nodes":"5","size_leaf_vector":"1"}},{"base_weights":[1.4017109E-2,-1.5433306E-1,8.0631115E-2,2.5592282E-2,-2.3622146E-2,4.2187027E-3,4.52007E-2],"categories":[],"categories_nodes":[],"categories_segments":[],"categories_sizes":[],"default_left":[0,0,0,0,0,0,0],"id":85,"left_children":[1,3,5,-1,-1,-1,-1],"loss_changes":[8.863226E0,7.8346224E0,7.9795647E0,0E0,0E0,0E0,0E0],"parents":[2147483647,0,0,1,1,2,2],"right_children":[2,4,6,-1,-1,-1,-1],"split_conditions":[-1.074E3,-1.761E3,1.7E1,2.5592282E-2,-2.3622146E-2,4.2187027E-3,4.52007E-2],"split_indices":[21,29,28,0,0,0,0],"split_type":[0,0,0,0,0,0,0],"sum_hessian":[7.797895E2,2.1920918E2,5.6058026E2,3.4706318E1,1.8450287E2,5.130394E2,4.7540833E1],"tree_param":{"num_deleted":"0","num_feature":"50","num_nodes":"7","size_leaf_vector":"1"}},{"base_weights":[-1.4127651E-2,2.7850527E-2,-2.3514028E-1,-5.6231054E-3,1.441318E-2,1.3547792E-2,-3.650295E-2],"categories":[],"categories_nodes":[],"categories_segments":[],"categories_sizes":[],"default_left":[0,0,0,0,0,0,0],"id":86,"left_children":[1,3,5,-1,-1,-1,-1],"loss_changes":[7.35248E0,6.566723E0,6.3350587E0,0E0,0E0,0E0,0E0],"parents":[2147483647,0,0,1,1,2,2],"right_children":[2,4,6,-1,-1,-1,-1],"split_conditions":[8.388775E0,-7.17E2,-2.501E3,-5.6231054E-3,1.441318E-2,1.3547792E-2,-3.650295E-2],"split_indices":[15,36,13,0,0,0,0],"split_type":[0,0,0,0,0,0,0],"sum_hessian":[7.8395953E2,6.6249756E2,1.2146198E2,3.8598126E2,2.765163E2,3.1465382E1,8.99966E1],"tree_param":{"num_deleted":"0","num_feature":"50","num_nodes":"7","size_leaf_vector":"1"}},{"base_weights":[-1.6620997E-2,-6.9290236E-2,1.7337948E-1,-9.338521E-3,4.850697E-2,3.0077592E-2,-2.0519774E-2],"categories":[],"categories_nodes":[],"categories_segments":[],"categories_sizes":[],"default_left":[0,0,0,0,0,0,0],"id":87,"left_children":[1,3,5,-1,-1,-1,-1],"loss_changes":[7.9026456E0,8.470259E0,8.58097E0,0E0,0E0,0E0,0E0],"parents":[2147483647,0,0,1,1,2,2],"right_children":[2,4,6,-1,-1,-1,-1],"split_conditions":[2.432E-1,-2.7E1,4.27905E4,-9.338521E-3,4.850697E-2,3.0077592E-2,-2.0519774E-2],"split_indices":[27,33,23,0,0,0,0],"split_type":[0,0,0,0,0,0,0],"sum_hessian":[7.7869507E2,6.121735E2,1.6652148E2,5.9065857E2,2.1514961E1,1.2536275E2,4.1158737E1],"tree_param":{"num_deleted":"0","num_feature":"50","num_nodes":"7","size_leaf_vector":"1"}},{"base_weights":[-6.316334E-4,-7.87869E-2,1.22386925E-1,3.4636553E-2,-1.1457452E-2,4.8848163E-2,-4.888313E-4],"categories":[],"categories_nodes":[],"categories_segments":[],"categories_sizes":[],"default_left":[0,0,0,0,0,0,0],"id":88,"left_children":[1,3,5,-1,-1,-1,-1],"loss_changes":[7.6016536E0,7.554288E0,1.4324507E1,0E0,0E0,0E0,0E0],"parents":[2147483647,0,0,1,1,2,2],"right_children":[2,4,6,-1,-1,-1,-1],"split_conditions":[2.81475E4,1.64184E-1,4.545E5,3.4636553E-2,-1.1457452E-2,4.8848163E-2,-4.888313E-4],"split_indices":[23,0,17,0,0,0,0],"split_type":[0,0,0,0,0,0,0],"sum_hessian":[7.8062616E2,4.784552E2,3.0217096E2,3.3778538E1,4.4467667E2,7.42908E1,2.2788016E2],"tree_param":{"num_deleted":"0","num_feature":"50","num_nodes":"7","size_leaf_vector":"1"}},{"base_weights":[1.0710692E-2,3.2346126E-2,-3.526104E-1,6.810568E-3,-1.3372855E-2,-1.0670317E-2,-5.1448714E-2],"categories":[],"categories_nodes":[],"categories_segments":[],"categories_sizes":[],"default_left":[0,0,0,0,0,0,0],"id":89,"left_children":[1,3,5,-1,-1,-1,-1],"loss_changes":[6.189133E0,4.445217E0,1.4875088E0,0E0,0E0,0E0,0E0],"parents":[2147483647,0,0,1,1,2,2],"right_children":[2,4,6,-1,-1,-1,-1],"split_conditions":[6.75294E-1,5.3902805E1,1.422E5,6.810568E-3,-1.3372855E-2,-1.0670317E-2,-5.1448714E-2],"split_indices":[0,16,37,0,0,0,0],"split_type":[0,0,0,0,0,0,0],"sum_hessian":[7.751056E2,7.358418E2,3.9263836E1,6.078975E2,1.27944244E2,1.8879604E1,2.0384232E1],"tree_param":{"num_deleted":"0","num_feature":"50","num_nodes":"7","size_leaf_vector":"1"}},{"base_weights":[4.0458534E-2,6.7226966E-3,2.7552918E-1,-7.2142347E-3,9.605964E-3,-2.534399E-2,4.1847784E-2],"categories":[],"categories_nodes":[],"categories_segments":[],"categories_sizes":[],"default_left":[0,0,0,0,0,0,0],"id":90,"left_children":[1,3,5,-1,-1,-1,-1],"loss_changes":[6.197247E0,4.892809E0,7.9479446E0,0E0,0E0,0E0,0E0],"parents":[2147483647,0,0,1,1,2,2],"right_children":[2,4,6,-1,-1,-1,-1],"split_conditions":[2.9778794E5,-1.059E3,-7.727E3,-7.2142347E-3,9.605964E-3,-2.534399E-2,4.1847784E-2],"split_indices":[25,13,44,0,0,0,0],"split_type":[0,0,0,0,0,0,0],"sum_hessian":[7.776318E2,6.845347E2,9.309706E1,3.640873E2,3.2044742E2,1.8983934E1,7.411313E1],"tree_param":{"num_deleted":"0","num_feature":"50","num_nodes":"7","size_leaf_vector":"1"}},{"base_weights":[1.0569417E-3,3.7281435E-2,-1.9821647E-1,-3.2066405E-3,1.8407468E-2,-3.3596613E-2,1.53321205E-2],"categories":[],"categories_nodes":[],"categories_segments":[],"categories_sizes":[],"default_left":[0,0,0,0,0,0,0],"id":91,"left_children":[1,3,5,-1,-1,-1,-1],"loss_changes":[5.674746E0,6.7999377E0,6.113371E0,0E0,0E0,0E0,0E0],"parents":[2147483647,0,0,1,1,2,2],"right_children":[2,4,6,-1,-1,-1,-1],"split_conditions":[3.89385E4,6E0,2E0,-3.2066405E-3,1.8407468E-2,-3.3596613E-2,1.53321205E-2],"split_indices":[23,43,39,0,0,0,0],"split_type":[0,0,0,0,0,0,0],"sum_hessian":[7.7601215E2,6.6008466E2,1.1592751E2,4.5095358E2,2.0913104E2,8.3449425E1,3.247809E1],"tree_param":{"num_deleted":"0","num_feature":"50","num_nodes":"7","size_leaf_vector":"1"}},{"base_weights":[7.979382E-3,-4.4661924E-2,1.509495E-1,-1.2785532E-2,1.1155053E-2,-3.1940736E-2,2.0544104E-2],"categories":[],"categories_nodes":[],"categories_segments":[],"categories_sizes":[],"default_left":[0,0,0,0,0,0,0],"id":92,"left_children":[1,3,5,-1,-1,-1,-1],"loss_changes":[5.910071E0,7.5378385E0,5.7428536E0,0E0,0E0,0E0,0E0],"parents":[2147483647,0,0,1,1,2,2],"right_children":[2,4,6,-1,-1,-1,-1],"split_conditions":[2E0,5.550926E-1,9.27E3,-1.2785532E-2,1.1155053E-2,-3.1940736E-2,2.0544104E-2],"split_indices":[35,14,23,0,0,0,0],"split_type":[0,0,0,0,0,0,0],"sum_hessian":[7.757943E2,5.6953186E2,2.0626244E2,3.7221213E2,1.9731975E2,1.8891134E1,1.8737129E2],"tree_param":{"num_deleted":"0","num_feature":"50","num_nodes":"7","size_leaf_vector":"1"}},{"base_weights":[1.2250849E-2,-2.0027956E-2,3.1014022E-1,4.1893482E-2,-4.6825963E-3,1.2845715E-2,6.312144E-2],"categories":[],"categories_nodes":[],"categories_segments":[],"categories_sizes":[],"default_left":[0,0,0,0,0,0,0],"id":93,"left_children":[1,3,5,-1,-1,-1,-1],"loss_changes":[7.497584E0,8.394642E0,4.0406876E0,0E0,0E0,0E0,0E0],"parents":[2147483647,0,0,1,1,2,2],"right_children":[2,4,6,-1,-1,-1,-1],"split_conditions":[-1E0,-1.761E3,6.65892E5,4.1893482E-2,-4.6825963E-3,1.2845715E-2,6.312144E-2],"split_indices":[2,29,42,0,0,0,0],"split_type":[0,0,0,0,0,0,0],"sum_hessian":[7.715084E2,7.0029E2,7.121844E1,3.6082233E1,6.6420776E2,4.995265E1,2.1265789E1],"tree_param":{"num_deleted":"0","num_feature":"50","num_nodes":"7","size_leaf_vector":"1"}},{"base_weights":[-7.3377863E-3,1.3150026E-2,-4.17379E-1,-1.9322125E-2,6.4102784E-3,-5.5190604E-2,-1.88291E-2],"categories":[],"categories_nodes":[],"categories_segments":[],"categories_sizes":[],"default_left":[0,0,0,0,0,0,0],"id":94,"left_children":[1,3,5,-1,-1,-1,-1],"loss_changes":[6.636603E0,7.9917927E0,6.389055E-1,0E0,0E0,0E0,0E0],"parents":[2147483647,0,0,1,1,2,2],"right_children":[2,4,6,-1,-1,-1,-1],"split_conditions":[6.850174E-1,2.9127995E1,-5E1,-1.9322125E-2,6.4102784E-3,-5.5190604E-2,-1.88291E-2],"split_indices":[0,16,29,0,0,0,0],"split_type":[0,0,0,0,0,0,0],"sum_hessian":[7.817254E2,7.491344E2,3.2591038E1,1.4557178E2,6.035626E2,1.6094288E1,1.6496752E1],"tree_param":{"num_deleted":"0","num_feature":"50","num_nodes":"7","size_leaf_vector":"1"}},{"base_weights":[6.159353E-3,-1.8905807E-1,5.3606186E-2,-6.5113935E-3,-3.9313212E-2,-1.064805E-2,1.275475E-2],"categories":[],"categories_nodes":[],"categories_segments":[],"categories_sizes":[],"default_left":[0,0,0,0,0,0,0],"id":95,"left_children":[1,3,5,-1,-1,-1,-1],"loss_changes":[7.2996473E0,3.7704344E0,7.5665846E0,0E0,0E0,0E0,0E0],"parents":[2147483647,0,0,1,1,2,2],"right_children":[2,4,6,-1,-1,-1,-1],"split_conditions":[2.9459274E1,9.272104E3,-1.05625E3,-6.5113935E-3,-3.9313212E-2,-1.064805E-2,1.275475E-2],"split_indices":[16,26,21,0,0,0,0],"split_type":[0,0,0,0,0,0,0],"sum_hessian":[7.7761957E2,1.4912592E2,6.2849365E2,9.688081E1,5.2245106E1,1.9787782E2,4.3061584E2],"tree_param":{"num_deleted":"0","num_feature":"50","num_nodes":"7","size_leaf_vector":"1"}},{"base_weights":[-2.2552134E-2,4.0040596E-4,-3.959285E-1,-3.3314868E-3,2.1697968E-2,-5.7303287E-2,-4.8492975E-3],"categories":[],"categories_nodes":[],"categories_segments":[],"categories_sizes":[],"default_left":[0,0,0,0,0,0,0],"id":96,"left_children":[1,3,5,-1,-1,-1,-1],"loss_changes":[6.7849846E0,5.5183353E0,2.6823435E0,0E0,0E0,0E0,0E0],"parents":[2147483647,0,0,1,1,2,2],"right_children":[2,4,6,-1,-1,-1,-1],"split_conditions":[4E0,1.71E6,4.59E5,-3.3314868E-3,2.1697968E-2,-5.7303287E-2,-4.8492975E-3],"split_indices":[20,45,45,0,0,0,0],"split_type":[0,0,0,0,0,0,0],"sum_hessian":[7.8662683E2,7.457764E2,4.0850426E1,6.4897955E2,9.679689E1,2.4907356E1,1.594307E1],"tree_param":{"num_deleted":"0","num_feature":"50","num_nodes":"7","size_leaf_vector":"1"}},{"base_weights":[2.5632745E-3,-1.6762963E-2,3.0622348E-1,-3.1477943E-2,5.191333E-4,6.1900973E-2,-4.6597733E-3],"categories":[],"categories_nodes":[],"categories_segments":[],"categories_sizes":[],"default_left":[0,0,0,0,0,0,0],"id":97,"left_children":[1,3,5,-1,-1,-1,-1],"loss_changes":[4.6027417E0,4.836701E0,5.322991E0,0E0,0E0,0E0,0E0],"parents":[2147483647,0,0,1,1,2,2],"right_children":[2,4,6,-1,-1,-1,-1],"split_conditions":[9.244294E-1,-2.755E3,5.084694E-2,-3.1477943E-2,5.191333E-4,6.1900973E-2,-4.6597733E-3],"split_indices":[9,13,40,0,0,0,0],"split_type":[0,0,0,0,0,0,0],"sum_hessian":[7.7492523E2,7.3299805E2,4.192715E1,4.571771E1,6.8728033E2,2.0224901E1,2.1702251E1],"tree_param":{"num_deleted":"0","num_feature":"50","num_nodes":"7","size_leaf_vector":"1"}},{"base_weights":[-1.2298915E-2,6.120869E-2,-1.2023834E-1,1.5570973E-3,4.5236543E-2,-1.7066404E-2,3.4595825E-2],"categories":[],"categories_nodes":[],"categories_segments":[],"categories_sizes":[],"default_left":[0,0,0,0,0,0,0],"id":98,"left_children":[1,3,5,-1,-1,-1,-1],"loss_changes":[6.2195325E0,8.299027E0,7.7560196E0,0E0,0E0,0E0,0E0],"parents":[2147483647,0,0,1,1,2,2],"right_children":[2,4,6,-1,-1,-1,-1],"split_conditions":[4.2809036E1,2.9778794E5,2.068263E6,1.5570973E-3,4.5236543E-2,-1.7066404E-2,3.4595825E-2],"split_indices":[16,25,45,0,0,0,0],"split_type":[0,0,0,0,0,0,0],"sum_hessian":[7.7423444E2,4.6186523E2,3.123692E2,4.182639E2,4.3601368E1,2.8474017E2,2.762903E1],"tree_param":{"num_deleted":"0","num_feature":"50","num_nodes":"7","size_leaf_vector":"1"}},{"base_weights":[1.0282616E-2,2.5729534E-1,-2.5016852E-2,6.435109E-2,1.3806996E-2,-6.37624E-3,2.013899E-2],"categories":[],"categories_nodes":[],"categories_segments":[],"categories_sizes":[],"default_left":[0,0,0,0,0,0,0],"id":99,"left_children":[1,3,5,-1,-1,-1,-1],"loss_changes":[6.871855E0,4.092474E0,6.124902E0,0E0,0E0,0E0,0E0],"parents":[2147483647,0,0,1,1,2,2],"right_children":[2,4,6,-1,-1,-1,-1],"split_conditions":[1E0,1E-1,4E0,6.435109E-2,1.3806996E-2,-6.37624E-3,2.013899E-2],"split_indices":[35,27,39,0,0,0,0],"split_type":[0,0,0,0,0,0,0],"sum_hessian":[7.7941833E2,9.352438E1,6.858939E2,1.687448E1,7.66499E1,5.8873425E2,9.7159676E1],"tree_param":{"num_deleted":"0","num_feature":"50","num_nodes":"7","size_leaf_vector":"1"}},{"base_weights":[-6.338812E-4,-1.4291655E-2,5.093791E-2,3.4758996E-2,-3.4613293E-3],"categories":[],"categories_nodes":[],"categories_segments":[],"categories_sizes":[],"default_left":[0,0,0,0,0],"id":100,"left_children":[1,3,-1,-1,-1],"loss_changes":[5.501963E0,5.7157364E0,0E0,0E0,0E0],"parents":[2147483647,0,0,1,1],"right_children":[2,4,-1,-1,-1],"split_conditions":[7.5E-1,-1.761E3,5.093791E-2,3.4758996E-2,-3.4613293E-3],"split_indices":[1,29,0,0,0],"split_type":[0,0,0,0,0],"sum_hessian":[7.7964606E2,7.640454E2,1.5600688E1,3.634273E1,7.2770264E2],"tree_param":{"num_deleted":"0","num_feature":"50","num_nodes":"5","size_leaf_vector":"1"}},{"base_weights":[-9.485858E-3,-1.2081579E-1,4.52358E-2,3.4273293E-2,-1.8682629E-2,2.1584949E-2,-3.4705393E-3],"categories":[],"categories_nodes":[],"categories_segments":[],"categories_sizes":[],"default_left":[0,0,0,0,0,0,0],"id":101,"left_children":[1,3,5,-1,-1,-1,-1],"loss_changes":[4.7740703E0,8.218699E0,7.21196E0,0E0,0E0,0E0,0E0],"parents":[2147483647,0,0,1,1,2,2],"right_children":[2,4,6,-1,-1,-1,-1],"split_conditions":[-1.709E3,2.4093114E-1,7E0,3.4273293E-2,-1.8682629E-2,2.1584949E-2,-3.4705393E-3],"split_indices":[5,0,38,0,0,0,0],"split_type":[0,0,0,0,0,0,0],"sum_hessian":[7.741563E2,2.5313005E2,5.2102625E2,2.8940348E1,2.241897E2,1.6352475E2,3.5750153E2],"tree_param":{"num_deleted":"0","num_feature":"50","num_nodes":"7","size_leaf_vector":"1"}},{"base_weights":[2.076667E-3,1.7599747E-2,-4.489586E-2,-3.8905998E-3,1.9567512E-2],"categories":[],"categories_nodes":[],"categories_segments":[],"categories_sizes":[],"default_left":[0,0,0,0,0],"id":102,"left_children":[1,3,-1,-1,-1],"loss_changes":[5.4668236E0,7.626936E0,0E0,0E0,0E0],"parents":[2147483647,0,0,1,1],"right_children":[2,4,-1,-1,-1],"split_conditions":[2.982927E4,1.9126275E5,-4.489586E-2,-3.8905998E-3,1.9567512E-2],"split_indices":[26,25,0,0,0],"split_type":[0,0,0,0,0],"sum_hessian":[7.7016956E2,7.4918994E2,2.0979637E1,5.716919E2,1.7749803E2],"tree_param":{"num_deleted":"0","num_feature":"50","num_nodes":"5","size_leaf_vector":"1"}},{"base_weights":[2.2581818E-3,-4.8749328E-2,1.5551782E-1,5.068774E-4,-2.5832346E-2,2.6438218E-3,4.478787E-2],"categories":[],"categories_nodes":[],"categories_segments":[],"categories_sizes":[],"default_left":[0,0,0,0,0,0,0],"id":103,"left_children":[1,3,5,-1,-1,-1,-1],"loss_changes":[6.1033125E0,6.615367E0,7.2973914E0,0E0,0E0,0E0,0E0],"parents":[2147483647,0,0,1,1,2,2],"right_children":[2,4,6,-1,-1,-1,-1],"split_conditions":[7E0,1E0,1.0395E6,5.068774E-4,-2.5832346E-2,2.6438218E-3,4.478787E-2],"split_indices":[43,31,45,0,0,0,0],"split_type":[0,0,0,0,0,0,0],"sum_hessian":[7.70886E2,5.809464E2,1.8993962E2,4.661256E2,1.14820786E2,1.355468E2,5.4392815E1],"tree_param":{"num_deleted":"0","num_feature":"50","num_nodes":"7","size_leaf_vector":"1"}},{"base_weights":[1.0353843E-2,-3.205586E-1,3.000399E-2,-1.24743385E-2,-5.1808186E-2,5.1690107E-3,-3.3357006E-2],"categories":[],"categories_nodes":[],"categories_segments":[],"categories_sizes":[],"default_left":[0,0,0,0,0,0,0],"id":104,"left_children":[1,3,5,-1,-1,-1,-1],"loss_changes":[5.14675E0,1.3933892E0,5.958045E0,0E0,0E0,0E0,0E0],"parents":[2147483647,0,0,1,1,2,2],"right_children":[2,4,6,-1,-1,-1,-1],"split_conditions":[1.0466666E0,-5.16E2,4E0,-1.24743385E-2,-5.1808186E-2,5.1690107E-3,-3.3357006E-2],"split_indices":[22,21,20,0,0,0,0],"split_type":[0,0,0,0,0,0,0],"sum_hessian":[7.7911035E2,3.9379818E1,7.397305E2,2.3871967E1,1.550785E1,7.0213916E2,3.7591385E1],"tree_param":{"num_deleted":"0","num_feature":"50","num_nodes":"7","size_leaf_vector":"1"}},{"base_weights":[-5.660812E-3,-2.6456466E-2,3.077222E-1,-3.471484E-2,-3.0964985E-4,6.735151E-2,-8.711036E-3],"categories":[],"categories_nodes":[],"categories_segments":[],"categories_sizes":[],"default_left":[0,0,0,0,0,0,0],"id":105,"left_children":[1,3,5,-1,-1,-1,-1],"loss_changes":[5.165761E0,5.553801E0,7.4184575E0,0E0,0E0,0E0,0E0],"parents":[2147483647,0,0,1,1,2,2],"right_children":[2,4,6,-1,-1,-1,-1],"split_conditions":[9.244294E-1,-2.755E3,5.084694E-2,-3.471484E-2,-3.0964985E-4,6.735151E-2,-8.711036E-3],"split_indices":[9,13,40,0,0,0,0],"split_type":[0,0,0,0,0,0,0],"sum_hessian":[7.814126E2,7.37079E2,4.433363E1,4.533967E1,6.917393E2,2.1181183E1,2.3152447E1],"tree_param":{"num_deleted":"0","num_feature":"50","num_nodes":"7","size_leaf_vector":"1"}},{"base_weights":[1.3533997E-2,-2.6911054E-2,2.5826892E-1,-2.5561348E-2,2.2538635E-3,7.83295E-2,1.0961505E-2],"categories":[],"categories_nodes":[],"categories_segments":[],"categories_sizes":[],"default_left":[0,0,0,0,0,0,0],"id":106,"left_children":[1,3,5,-1,-1,-1,-1],"loss_changes":[7.7121363E0,7.6077323E0,8.19282E0,0E0,0E0,0E0,0E0],"parents":[2147483647,0,0,1,1,2,2],"right_children":[2,4,6,-1,-1,-1,-1],"split_conditions":[2E0,-2.884E3,8.761122E-1,-2.5561348E-2,2.2538635E-3,7.83295E-2,1.0961505E-2],"split_indices":[41,5,15,0,0,0,0],"split_type":[0,0,0,0,0,0,0],"sum_hessian":[7.706253E2,6.6515204E2,1.0547325E2,1.14544304E2,5.506077E2,1.8563417E1,8.6909836E1],"tree_param":{"num_deleted":"0","num_feature":"50","num_nodes":"7","size_leaf_vector":"1"}},{"base_weights":[1.641684E-2,4.1329212E-2,-3.0992666E-1,4.0530018E-4,2.8574655E-2,1.9976108E-3,-5.9446484E-2],"categories":[],"categories_nodes":[],"categories_segments":[],"categories_sizes":[],"default_left":[0,0,0,0,0,0,0],"id":107,"left_children":[1,3,5,-1,-1,-1,-1],"loss_changes":[6.3868675E0,6.617589E0,5.2923245E0,0E0,0E0,0E0,0E0],"parents":[2147483647,0,0,1,1,2,2],"right_children":[2,4,6,-1,-1,-1,-1],"split_conditions":[-3.94E2,1.7350456E6,2.0032892E-1,4.0530018E-4,2.8574655E-2,1.9976108E-3,-5.9446484E-2],"split_indices":[44,45,14,0,0,0,0],"split_type":[0,0,0,0,0,0,0],"sum_hessian":[7.727159E2,7.2196906E2,5.0746807E1,6.30842E2,9.112711E1,2.5652937E1,2.509387E1],"tree_param":{"num_deleted":"0","num_feature":"50","num_nodes":"7","size_leaf_vector":"1"}},{"base_weights":[2.3850272E-3,-5.2063674E-2,1.4702436E-1,-1.056319E-2,1.1097821E-2,4.6315547E-2,4.7550662E-3],"categories":[],"categories_nodes":[],"categories_segments":[],"categories_sizes":[],"default_left":[0,0,0,0,0,0,0],"id":108,"left_children":[1,3,5,-1,-1,-1,-1],"loss_changes":[6.213247E0,5.066045E0,6.674403E0,0E0,0E0,0E0,0E0],"parents":[2147483647,0,0,1,1,2,2],"right_children":[2,4,6,-1,-1,-1,-1],"split_conditions":[2E0,-6.93E2,1E0,-1.056319E-2,1.1097821E-2,4.6315547E-2,4.7550662E-3],"split_indices":[35,13,12,0,0,0,0],"split_type":[0,0,0,0,0,0,0],"sum_hessian":[7.790814E2,5.68335E2,2.1074643E2,4.2910953E2,1.3922548E2,4.606617E1,1.6468025E2],"tree_param":{"num_deleted":"0","num_feature":"50","num_nodes":"7","size_leaf_vector":"1"}},{"base_weights":[-4.373415E-3,-8.6406365E-2,9.824199E-2,-2.517814E-4,-3.3304375E-2,2.6435187E-2,-4.486983E-3],"categories":[],"categories_nodes":[],"categories_segments":[],"categories_sizes":[],"default_left":[0,0,0,0,0,0,0],"id":109,"left_children":[1,3,5,-1,-1,-1,-1],"loss_changes":[6.6528544E0,9.0801935E0,8.408497E0,0E0,0E0,0E0,0E0],"parents":[2147483647,0,0,1,1,2,2],"right_children":[2,4,6,-1,-1,-1,-1],"split_conditions":[1.19619E5,8.321715E3,-4.545E3,-2.517814E-4,-3.3304375E-2,2.6435187E-2,-4.486983E-3],"split_indices":[25,26,44,0,0,0,0],"split_type":[0,0,0,0,0,0,0],"sum_hessian":[7.802855E2,4.3407025E2,3.4621524E2,3.276709E2,1.0639936E2,1.582725E2,1.8794273E2],"tree_param":{"num_deleted":"0","num_feature":"50","num_nodes":"7","size_leaf_vector":"1"}},{"base_weights":[1.680658E-2,1.9289464E-3,4.8883542E-2,-2.6299933E-3,2.4071833E-2],"categories":[],"categories_nodes":[],"categories_segments":[],"categories_sizes":[],"default_left":[0,0,0,0,0],"id":110,"left_children":[1,3,-1,-1,-1],"loss_changes":[5.4794645E0,5.168672E0,0E0,0E0,0E0],"parents":[2147483647,0,0,1,1],"right_children":[2,4,-1,-1,-1],"split_conditions":[6.25E-1,3E0,4.8883542E-2,-2.6299933E-3,2.4071833E-2],"split_indices":[1,41,0,0,0],"split_type":[0,0,0,0,0],"sum_hessian":[7.759249E2,7.570832E2,1.8841682E1,6.810241E2,7.6059074E1],"tree_param":{"num_deleted":"0","num_feature":"50","num_nodes":"5","size_leaf_vector":"1"}},{"base_weights":[-4.602486E-3,5.683559E-2,-1.3173589E-1,-4.036869E-4,2.373938E-2,-3.3779066E-2,-2.4290281E-4],"categories":[],"categories_nodes":[],"categories_segments":[],"categories_sizes":[],"default_left":[0,0,0,0,0,0,0],"id":111,"left_children":[1,3,5,-1,-1,-1,-1],"loss_changes":[6.115365E0,5.8092556E0,6.791031E0,0E0,0E0,0E0,0E0],"parents":[2147483647,0,0,1,1,2,2],"right_children":[2,4,6,-1,-1,-1,-1],"split_conditions":[1E0,3.647925E5,9E0,-4.036869E-4,2.373938E-2,-3.3779066E-2,-2.4290281E-4],"split_indices":[28,19,28,0,0,0,0],"split_type":[0,0,0,0,0,0,0],"sum_hessian":[7.73141E2,5.231095E2,2.5003148E2,3.9487247E2,1.2823703E2,9.32974E1,1.5673409E2],"tree_param":{"num_deleted":"0","num_feature":"50","num_nodes":"7","size_leaf_vector":"1"}},{"base_weights":[-1.0209711E-2,-4.9076345E-2,2.2924455E-1,5.1246407E-3,-1.2717852E-2,6.822428E-4,7.340476E-2],"categories":[],"categories_nodes":[],"categories_segments":[],"categories_sizes":[],"default_left":[0,0,0,0,0,0,0],"id":112,"left_children":[1,3,5,-1,-1,-1,-1],"loss_changes":[7.3671923E0,5.36043E0,1.2390945E1,0E0,0E0,0E0,0E0],"parents":[2147483647,0,0,1,1,2,2],"right_children":[2,4,6,-1,-1,-1,-1],"split_conditions":[-8.36E2,1.6605E5,3.11814E5,5.1246407E-3,-1.2717852E-2,6.822428E-4,7.340476E-2],"split_indices":[18,45,19,0,0,0,0],"split_type":[0,0,0,0,0,0,0],"sum_hessian":[7.805498E2,6.749686E2,1.0558121E2,2.9620746E2,3.7876117E2,7.680681E1,2.8774399E1],"tree_param":{"num_deleted":"0","num_feature":"50","num_nodes":"7","size_leaf_vector":"1"}},{"base_weights":[2.4029288E-2,4.718055E-2,-3.283683E-1,-6.629842E-3,1.0428763E-2,-1.2947303E-2,-4.9657688E-2],"categories":[],"categories_nodes":[],"categories_segments":[],"categories_sizes":[],"default_left":[0,0,0,0,0,0,0],"id":113,"left_children":[1,3,5,-1,-1,-1,-1],"loss_changes":[6.3972583E0,4.7734046E0,1.2971787E0,0E0,0E0,0E0,0E0],"parents":[2147483647,0,0,1,1,2,2],"right_children":[2,4,6,-1,-1,-1,-1],"split_conditions":[6.665783E-1,-1.667E3,-3.481E3,-6.629842E-3,1.0428763E-2,-1.2947303E-2,-4.9657688E-2],"split_indices":[0,5,18,0,0,0,0],"split_type":[0,0,0,0,0,0,0],"sum_hessian":[7.6963196E2,7.262505E2,4.338148E1,2.4285744E2,4.8339307E2,2.3932041E1,1.944944E1],"tree_param":{"num_deleted":"0","num_feature":"50","num_nodes":"7","size_leaf_vector":"1"}},{"base_weights":[-6.2875105E-3,1.980806E-1,-4.129365E-2,7.0105866E-3,6.3324854E-2,-1.1803585E-2,1.0119212E-2],"categories":[],"categories_nodes":[],"categories_segments":[],"categories_sizes":[],"default_left":[0,0,0,0,0,0,0],"id":114,"left_children":[1,3,5,-1,-1,-1,-1],"loss_changes":[5.586215E0,6.1387887E0,7.341162E0,0E0,0E0,0E0,0E0],"parents":[2147483647,0,0,1,1,2,2],"right_children":[2,4,6,-1,-1,-1,-1],"split_conditions":[4.0319937E3,-1.038E3,6E0,7.0105866E-3,6.3324854E-2,-1.1803585E-2,1.0119212E-2],"split_indices":[26,18,43,0,0,0,0],"split_type":[0,0,0,0,0,0,0],"sum_hessian":[7.701202E2,1.0921627E2,6.609039E2,8.888296E1,2.0333313E1,4.3010776E2,2.3079614E2],"tree_param":{"num_deleted":"0","num_feature":"50","num_nodes":"7","size_leaf_vector":"1"}},{"base_weights":[1.7248545E-2,-5.5766985E-2,1.2753591E-1,-9.453242E-3,2.4067663E-2,-1.7271593E-2,2.1543495E-2],"categories":[],"categories_nodes":[],"categories_segments":[],"categories_sizes":[],"default_left":[0,0,0,0,0,0,0],"id":115,"left_children":[1,3,5,-1,-1,-1,-1],"loss_changes":[6.316673E0,5.5468388E0,8.426144E0,0E0,0E0,0E0,0E0],"parents":[2147483647,0,0,1,1,2,2],"right_children":[2,4,6,-1,-1,-1,-1],"split_conditions":[1E0,4E0,2.9303217E1,-9.453242E-3,2.4067663E-2,-1.7271593E-2,2.1543495E-2],"split_indices":[6,30,16,0,0,0,0],"split_type":[0,0,0,0,0,0,0],"sum_hessian":[7.7500165E2,4.6778033E2,3.072213E2,4.1669534E2,5.1084984E1,6.8479485E1,2.387418E2],"tree_param":{"num_deleted":"0","num_feature":"50","num_nodes":"7","size_leaf_vector":"1"}},{"base_weights":[-1.0701765E-2,9.601611E-3,-3.3371553E-1,-7.7674114E-3,1.009737E-2,-5.481831E-2,8.124626E-3],"categories":[],"categories_nodes":[],"categories_segments":[],"categories_sizes":[],"default_left":[0,0,0,0,0,0,0],"id":116,"left_children":[1,3,5,-1,-1,-1,-1],"loss_changes":[5.121522E0,5.918898E0,4.332376E0,0E0,0E0,0E0,0E0],"parents":[2147483647,0,0,1,1,2,2],"right_children":[2,4,6,-1,-1,-1,-1],"split_conditions":[4E0,4E0,2.011185E5,-7.7674114E-3,1.009737E-2,-5.481831E-2,8.124626E-3],"split_indices":[20,43,19,0,0,0,0],"split_type":[0,0,0,0,0,0,0],"sum_hessian":[7.734829E2,7.323045E2,4.117841E1,3.7493143E2,3.5737308E2,2.6089283E1,1.5089128E1],"tree_param":{"num_deleted":"0","num_feature":"50","num_nodes":"7","size_leaf_vector":"1"}},{"base_weights":[-1.49256615E-2,-6.258582E-2,1.5564711E-1,-1.2584075E-2,6.003123E-3,2.5061313E-2,-4.4430286E-2],"categories":[],"categories_nodes":[],"categories_segments":[],"categories_sizes":[],"default_left":[0,0,0,0,0,0,0],"id":117,"left_children":[1,3,5,-1,-1,-1,-1],"loss_changes":[6.3666706E0,4.7767944E0,1.0308527E1,0E0,0E0,0E0,0E0],"parents":[2147483647,0,0,1,1,2,2],"right_children":[2,4,6,-1,-1,-1,-1],"split_conditions":[2.432E-1,6E0,9.034907E0,-1.2584075E-2,6.003123E-3,2.5061313E-2,-4.4430286E-2],"split_indices":[27,43,15,0,0,0,0],"split_type":[0,0,0,0,0,0,0],"sum_hessian":[7.721627E2,6.060033E2,1.6615945E2,3.9968484E2,2.0631844E2,1.459659E2,2.0193546E1],"tree_param":{"num_deleted":"0","num_feature":"50","num_nodes":"7","size_leaf_vector":"1"}},{"base_weights":[-9.704326E-3,-4.2111553E-2,1.7986192E-1,-2.2487855E-2,1.7412905E-4,3.0552862E-2,-2.575742E-2],"categories":[],"categories_nodes":[],"categories_segments":[],"categories_sizes":[],"default_left":[0,0,0,0,0,0,0],"id":118,"left_children":[1,3,5,-1,-1,-1,-1],"loss_changes":[4.83174E0,5.3756285E0,6.7082863E0,0E0,0E0,0E0,0E0],"parents":[2147483647,0,0,1,1,2,2],"right_children":[2,4,6,-1,-1,-1,-1],"split_conditions":[4E0,2E0,5.326489E1,-2.2487855E-2,1.7412905E-4,3.0552862E-2,-2.575742E-2],"split_indices":[39,4,16,0,0,0,0],"split_type":[0,0,0,0,0,0,0],"sum_hessian":[7.7533887E2,6.65464E2,1.09874886E2,1.2477883E2,5.406851E2,8.652555E1,2.3349335E1],"tree_param":{"num_deleted":"0","num_feature":"50","num_nodes":"7","size_leaf_vector":"1"}},{"base_weights":[-1.7047804E-2,2.0588307E-2,-1.6233227E-1,-9.514892E-3,8.998596E-3,-6.0729394E-3,-4.1427854E-2],"categories":[],"categories_nodes":[],"categories_segments":[],"categories_sizes":[],"default_left":[0,0,0,0,0,0,0],"id":119,"left_children":[1,3,5,-1,-1,-1,-1],"loss_changes":[4.2732334E0,5.0444345E0,3.9886417E0,0E0,0E0,0E0,0E0],"parents":[2147483647,0,0,1,1,2,2],"right_children":[2,4,6,-1,-1,-1,-1],"split_conditions":[-1.0813E4,-4.079E3,1.2702E5,-9.514892E-3,8.998596E-3,-6.0729394E-3,-4.1427854E-2],"split_indices":[46,18,25,0,0,0,0],"split_type":[0,0,0,0,0,0,0],"sum_hessian":[7.734505E2,6.177207E2,1.5572981E2,2.3085661E2,3.8686407E2,1.1539817E2,4.033165E1],"tree_param":{"num_deleted":"0","num_feature":"50","num_nodes":"7","size_leaf_vector":"1"}},{"base_weights":[-7.3011625E-3,8.470795E-2,-7.877352E-2,3.1271107E-2,-5.474496E-3,-4.0594194E-2,-8.671945E-5],"categories":[],"categories_nodes":[],"categories_segments":[],"categories_sizes":[],"default_left":[0,0,0,0,0,0,0],"id":120,"left_children":[1,3,5,-1,-1,-1,-1],"loss_changes":[5.1242824E0,1.0923509E1,1.1169659E1,0E0,0E0,0E0,0E0],"parents":[2147483647,0,0,1,1,2,2],"right_children":[2,4,6,-1,-1,-1,-1],"split_conditions":[8.015592E3,-4.62E2,1.0103692E5,3.1271107E-2,-5.474496E-3,-4.0594194E-2,-8.671945E-5],"split_indices":[26,33,25,0,0,0,0],"split_type":[0,0,0,0,0,0,0],"sum_hessian":[7.691537E2,3.35861E2,4.332927E2,1.25104774E2,2.1075621E2,7.9284294E1,3.5400842E2],"tree_param":{"num_deleted":"0","num_feature":"50","num_nodes":"7","size_leaf_vector":"1"}},{"base_weights":[-7.1854414E-3,-4.9096078E-2,1.7745E-1,-1.2575368E-2,4.936407E-3,4.1390415E-2,-1.7204446E-3],"categories":[],"categories_nodes":[],"categories_segments":[],"categories_sizes":[],"default_left":[0,0,0,0,0,0,0],"id":121,"left_children":[1,3,5,-1,-1,-1,-1],"loss_changes":[6.067033E0,4.8489037E0,6.7135396E0,0E0,0E0,0E0,0E0],"parents":[2147483647,0,0,1,1,2,2],"right_children":[2,4,6,-1,-1,-1,-1],"split_conditions":[3E0,-2.53E2,1.0330895E-2,-1.2575368E-2,4.936407E-3,4.1390415E-2,-1.7204446E-3],"split_indices":[32,33,14,0,0,0,0],"split_type":[0,0,0,0,0,0,0],"sum_hessian":[7.7340845E2,6.333206E2,1.400878E2,3.5530594E2,2.780147E2,6.0709686E1,7.937812E1],"tree_param":{"num_deleted":"0","num_feature":"50","num_nodes":"7","size_leaf_vector":"1"}},{"base_weights":[-1.6545804E-2,-1.5882295E-1,5.6464523E-2,-4.7717802E-2,-6.5181847E-3,1.1262484E-2,-2.0025477E-2],"categories":[],"categories_nodes":[],"categories_segments":[],"categories_sizes":[],"default_left":[0,0,0,0,0,0,0],"id":122,"left_children":[1,3,5,-1,-1,-1,-1],"loss_changes":[8.1736E0,7.794893E0,7.6220074E0,0E0,0E0,0E0,0E0],"parents":[2147483647,0,0,1,1,2,2],"right_children":[2,4,6,-1,-1,-1,-1],"split_conditions":[2.5270858E0,-1.1296E3,-1.59E2,-4.7717802E-2,-6.5181847E-3,1.1262484E-2,-2.0025477E-2],"split_indices":[22,21,5,0,0,0,0],"split_type":[0,0,0,0,0,0,0],"sum_hessian":[7.7753705E2,2.6169275E2,5.158443E2,5.4824574E1,2.068682E2,4.2555557E2,9.028874E1],"tree_param":{"num_deleted":"0","num_feature":"50","num_nodes":"7","size_leaf_vector":"1"}},{"base_weights":[-1.3614071E-2,4.482738E-2,-2.6590269E-2,-1.1703942E-2,5.750885E-3],"categories":[],"categories_nodes":[],"categories_segments":[],"categories_sizes":[],"default_left":[0,0,0,0,0],"id":123,"left_children":[1,-1,3,-1,-1],"loss_changes":[4.72412E0,0E0,5.8277516E0,0E0,0E0],"parents":[2147483647,0,0,2,2],"right_children":[2,-1,4,-1,-1],"split_conditions":[-1.2334E4,4.482738E-2,4E0,-1.1703942E-2,5.750885E-3],"split_indices":[44,0,43,0,0],"split_type":[0,0,0,0,0],"sum_hessian":[7.7325714E2,1.6546736E1,7.5671045E2,3.6364716E2,3.930633E2],"tree_param":{"num_deleted":"0","num_feature":"50","num_nodes":"5","size_leaf_vector":"1"}},{"base_weights":[-7.2728437E-3,-1.00747794E-1,5.836212E-2,-3.8765587E-2,-1.7747628E-3,2.802787E-3,5.4743804E-2],"categories":[],"categories_nodes":[],"categories_segments":[],"categories_sizes":[],"default_left":[0,0,0,0,0,0,0],"id":124,"left_children":[1,3,5,-1,-1,-1,-1],"loss_changes":[4.768157E0,7.5966873E0,6.702213E0,0E0,0E0,0E0,0E0],"parents":[2147483647,0,0,1,1,2,2],"right_children":[2,4,6,-1,-1,-1,-1],"split_conditions":[8.558625E4,2.475E5,-3.7E1,-3.8765587E-2,-1.7747628E-3,2.802787E-3,5.4743804E-2],"split_indices":[25,42,33,0,0,0,0],"split_type":[0,0,0,0,0,0,0],"sum_hessian":[7.673853E2,3.1545328E2,4.5193204E2,6.666355E1,2.4878973E2,4.3051642E2,2.1415638E1],"tree_param":{"num_deleted":"0","num_feature":"50","num_nodes":"7","size_leaf_vector":"1"}},{"base_weights":[-6.8845516E-3,-6.7794815E-2,1.054251E-1,1.9775493E-2,-1.2146501E-2,2.8388456E-2,-1.4466077E-2],"categories":[],"categories_nodes":[],"categories_segments":[],"categories_sizes":[],"default_left":[0,0,0,0,0,0,0],"id":125,"left_children":[1,3,5,-1,-1,-1,-1],"loss_changes":[5.301416E0,7.2763453E0,1.2372708E1,0E0,0E0,0E0,0E0],"parents":[2147483647,0,0,1,1,2,2],"right_children":[2,4,6,-1,-1,-1,-1],"split_conditions":[2.9718E4,4.0319937E3,3.89385E4,1.9775493E-2,-1.2146501E-2,2.8388456E-2,-1.4466077E-2],"split_indices":[23,26,23,0,0,0,0],"split_type":[0,0,0,0,0,0,0],"sum_hessian":[7.64745E2,4.9711844E2,2.6762653E2,8.132329E1,4.1579517E2,1.5578427E2,1.1184227E2],"tree_param":{"num_deleted":"0","num_feature":"50","num_nodes":"7","size_leaf_vector":"1"}},{"base_weights":[-1.8646702E-2,-8.988702E-2,5.740197E-2,-8.5137895E-4,-2.9836064E-2,-1.983822E-3,3.4857105E-2],"categories":[],"categories_nodes":[],"categories_segments":[],"categories_sizes":[],"default_left":[0,0,0,0,0,0,0],"id":126,"left_children":[1,3,5,-1,-1,-1,-1],"loss_changes":[4.2140126E0,6.7915516E0,8.512415E0,0E0,0E0,0E0,0E0],"parents":[2147483647,0,0,1,1,2,2],"right_children":[2,4,6,-1,-1,-1,-1],"split_conditions":[4.1743374E-1,1.8E1,3E0,-8.5137895E-4,-2.9836064E-2,-1.983822E-3,3.4857105E-2],"split_indices":[0,38,35,0,0,0,0],"split_type":[0,0,0,0,0,0,0],"sum_hessian":[7.6805664E2,3.9609543E2,3.719612E2,2.886365E2,1.07458916E2,2.9765878E2,7.430243E1],"tree_param":{"num_deleted":"0","num_feature":"50","num_nodes":"7","size_leaf_vector":"1"}},{"base_weights":[-2.9995447E-2,-4.375005E-2,3.1765174E-2,-2.9420976E-3,-4.2978976E-2],"categories":[],"categories_nodes":[],"categories_segments":[],"categories_sizes":[],"default_left":[0,0,0,0,0],"id":127,"left_children":[1,3,-1,-1,-1],"loss_changes":[3.798192E0,4.1103377E0,0E0,0E0,0E0],"parents":[2147483647,0,0,1,1],"right_children":[2,4,-1,-1,-1],"split_conditions":[-1.94E2,-3.04E2,3.1765174E-2,-2.9420976E-3,-4.2978976E-2],"split_indices":[21,13,0,0,0],"split_type":[0,0,0,0,0],"sum_hessian":[7.7477844E2,7.4949554E2,2.5282907E1,7.278598E2,2.1635744E1],"tree_param":{"num_deleted":"0","num_feature":"50","num_nodes":"5","size_leaf_vector":"1"}},{"base_weights":[2.5852218E-2,1.3971369E-2,4.028834E-2,-2.3369605E-3,1.58782E-2],"categories":[],"categories_nodes":[],"categories_segments":[],"categories_sizes":[],"default_left":[0,0,0,0,0],"id":128,"left_children":[1,3,-1,-1,-1],"loss_changes":[3.4149258E0,4.075894E0,0E0,0E0,0E0],"parents":[2147483647,0,0,1,1],"right_children":[2,4,-1,-1,-1],"split_conditions":[6.5384614E-1,3E0,4.028834E-2,-2.3369605E-3,1.58782E-2],"split_indices":[1,10,0,0,0],"split_type":[0,0,0,0,0],"sum_hessian":[7.6363666E2,7.453352E2,1.830141E1,5.958755E2,1.4945976E2],"tree_param":{"num_deleted":"0","num_feature":"50","num_nodes":"5","size_leaf_vector":"1"}},{"base_weights":[2.485412E-2,9.250771E-3,4.088448E-2,3.414486E-3,-2.7746124E-2],"categories":[],"categories_nodes":[],"categories_segments":[],"categories_sizes":[],"default_left":[0,0,0,0,0],"id":129,"left_children":[1,3,-1,-1,-1],"loss_changes":[4.6320605E0,5.408016E0,0E0,0E0,0E0],"parents":[2147483647,0,0,1,1],"right_children":[2,4,-1,-1,-1],"split_conditions":[-1.94E2,-2.925E2,4.088448E-2,3.414486E-3,-2.7746124E-2],"split_indices":[21,21,0,0,0],"split_type":[0,0,0,0,0],